{"learner":{"attributes":{"scikit_learn":"{\"_estimator_type\": \"classifier\"}"},"feature_names":[],"feature_types":[],"gradient_booster":{"model":{"cats":{"enc":[],"feature_segments":[],"sorted_idx":[]},"gbtree_model_param":{"num_parallel_tree":"1","num_trees":"750"},"iteration_indptr":[0,1,2,3,4,5,6,7,8,9,10,11,12,13,14,15,16,17,18,19,20,21,22,23,24,25,26,27,28,29,30,31,32,33,34,35,36,37,38,39,40,41,42,43,44,45,46,47,48,49,50,51,52,53,54,55,56,57,58,59,60,61,62,63,64,65,66,67,68,69,70,71,72,73,74,75,76,77,78,79,80,81,82,83,84,85,86,87,88,89,90,91,92,93,94,95,96,97,98,99,100,101,102,103,104,105,106,107,108,109,110,111,112,113,114,115,116,117,118,119,120,121,122,123,124,125,126,127,128,129,130,131,132,133,134,135,136,137,138,139,140,141,142,143,144,145,146,147,148,149,150,151,152,153,154,155,156,157,158,159,160,161,162,163,164,165,166,167,168,169,170,171,172,173,174,175,176,177,178,179,180,181,182,183,184,185,186,187,188,189,190,191,192,193,194,195,196,197,198,199,200,201,202,203,204,205,206,207,208,209,210,211,212,213,214,215,216,217,218,219,220,221,222,223,224,225,226,227,228,229,230,231,232,233,234,235,236,237,238,239,240,241,242,243,244,245,246,247,248,249,250,251,252,253,254,255,256,257,258,259,260,261,262,263,264,265,266,267,268,269,270,271,272,273,274,275,276,277,278,279,280,281,282,283,284,285,286,287,288,289,290,291,292,293,294,295,296,297,298,299,300,301,302,303,304,305,306,307,308,309,310,311,312,313,314,315,316,317,318,319,320,321,322,323,324,325,326,327,328,329,330,331,332,333,334,335,336,337,338,339,340,341,342,343,344,345,346,347,348,349,350,351,352,353,354,355,356,357,358,359,360,361,362,363,364,365,366,367,368,369,370,371,372,373,374,375,376,377,378,379,380,381,382,383,384,385,386,387,388,389,390,391,392,393,394,395,396,397,398,399,400,401,402,403,404,405,406,407,408,409,410,411,412,413,414,415,416,417,418,419,420,421,422,423,424,425,426,427,428,429,430,431,432,433,434,435,436,437,438,439,440,441,442,443,444,445,446,447,448,449,450,451,452,453,454,455,456,457,458,459,460,461,462,463,464,465,466,467,468,469,470,471,472,473,474,475,476,477,478,479,480,481,482,483,484,485,486,487,488,489,490,491,492,493,494,495,496,497,498,499,500,501,502,503,504,505,506,507,508,509,510,511,512,513,514,515,516,517,518,519,520,521,522,523,524,525,526,527,528,529,530,531,532,533,534,535,536,537,538,539,540,541,542,543,544,545,546,547,548,549,550,551,552,553,554,555,556,557,558,559,560,561,562,563,564,565,566,567,568,569,570,571,572,573,574,575,576,577,578,579,580,581,582,583,584,585,586,587,588,589,590,591,592,593,594,595,596,597,598,599,600,601,602,603,604,605,606,607,608,609,610,611,612,613,614,615,616,617,618,619,620,621,622,623,624,625,626,627,628,629,630,631,632,633,634,635,636,637,638,639,640,641,642,643,644,645,646,647,648,649,650,651,652,653,654,655,656,657,658,659,660,661,662,663,664,665,666,667,668,669,670,671,672,673,674,675,676,677,678,679,680,681,682,683,684,685,686,687,688,689,690,691,692,693,694,695,696,697,698,699,700,701,702,703,704,705,706,707,708,709,710,711,712,713,714,715,716,717,718,719,720,721,722,723,724,725,726,727,728,729,730,731,732,733,734,735,736,737,738,739,740,741,742,743,744,745,746,747,748,749,750],"tree_info":[0,0,0,0,0,0,0,0,0,0,0,0,0,0,0,0,0,0,0,0,0,0,0,0,0,0,0,0,0,0,0,0,0,0,0,0,0,0,0,0,0,0,0,0,0,0,0,0,0,0,0,0,0,0,0,0,0,0,0,0,0,0,0,0,0,0,0,0,0,0,0,0,0,0,0,0,0,0,0,0,0,0,0,0,0,0,0,0,0,0,0,0,0,0,0,0,0,0,0,0,0,0,0,0,0,0,0,0,0,0,0,0,0,0,0,0,0,0,0,0,0,0,0,0,0,0,0,0,0,0,0,0,0,0,0,0,0,0,0,0,0,0,0,0,0,0,0,0,0,0,0,0,0,0,0,0,0,0,0,0,0,0,0,0,0,0,0,0,0,0,0,0,0,0,0,0,0,0,0,0,0,0,0,0,0,0,0,0,0,0,0,0,0,0,0,0,0,0,0,0,0,0,0,0,0,0,0,0,0,0,0,0,0,0,0,0,0,0,0,0,0,0,0,0,0,0,0,0,0,0,0,0,0,0,0,0,0,0,0,0,0,0,0,0,0,0,0,0,0,0,0,0,0,0,0,0,0,0,0,0,0,0,0,0,0,0,0,0,0,0,0,0,0,0,0,0,0,0,0,0,0,0,0,0,0,0,0,0,0,0,0,0,0,0,0,0,0,0,0,0,0,0,0,0,0,0,0,0,0,0,0,0,0,0,0,0,0,0,0,0,0,0,0,0,0,0,0,0,0,0,0,0,0,0,0,0,0,0,0,0,0,0,0,0,0,0,0,0,0,0,0,0,0,0,0,0,0,0,0,0,0,0,0,0,0,0,0,0,0,0,0,0,0,0,0,0,0,0,0,0,0,0,0,0,0,0,0,0,0,0,0,0,0,0,0,0,0,0,0,0,0,0,0,0,0,0,0,0,0,0,0,0,0,0,0,0,0,0,0,0,0,0,0,0,0,0,0,0,0,0,0,0,0,0,0,0,0,0,0,0,0,0,0,0,0,0,0,0,0,0,0,0,0,0,0,0,0,0,0,0,0,0,0,0,0,0,0,0,0,0,0,0,0,0,0,0,0,0,0,0,0,0,0,0,0,0,0,0,0,0,0,0,0,0,0,0,0,0,0,0,0,0,0,0,0,0,0,0,0,0,0,0,0,0,0,0,0,0,0,0,0,0,0,0,0,0,0,0,0,0,0,0,0,0,0,0,0,0,0,0,0,0,0,0,0,0,0,0,0,0,0,0,0,0,0,0,0,0,0,0,0,0,0,0,0,0,0,0,0,0,0,0,0,0,0,0,0,0,0,0,0,0,0,0,0,0,0,0,0,0,0,0,0,0,0,0,0,0,0,0,0,0,0,0,0,0,0,0,0,0,0,0,0,0,0,0,0,0,0,0,0,0,0,0,0,0,0,0,0,0,0,0,0,0,0,0,0,0,0,0,0,0,0,0,0,0,0,0,0,0,0,0,0,0,0,0,0,0,0,0,0,0,0,0,0,0,0,0,0,0,0,0,0,0,0,0,0,0,0,0,0,0,0,0,0,0,0,0,0,0,0,0,0,0,0,0,0,0,0,0,0,0,0,0,0,0,0,0,0,0,0,0,0,0,0,0,0,0,0,0,0,0,0,0,0,0,0,0,0,0,0,0,0,0,0,0,0,0,0,0,0,0,0,0,0,0,0,0,0,0],"trees":[{"base_weights":[-2.597797E-2,-6.6300684E-1,1.2706252E0,-8.452648E-1,4.4844E-1,-1.8765464E-2,1.5679222E0,-9.7600496E-1,1.7498119E-2,-1.0613948E-2,2.405285E-2,1.7363361E0,5.3539494E-4,-5.233052E-1,-1.5883771E0,1.7501721E-2,1.9320539E0,-3.128207E-2,-9.26243E-2,-8.310183E-3,-3.128525E-2,1.496988E0,3.5961922E-2,2.880965E-1,-2.2858635E-2,1.655069E-2,3.520977E-2,-3.8863105E-1,1.0386653E0,-3.1274203E-2,5.683514E-3,2.6841618E-2,5.3539494E-4],"categories":[],"categories_nodes":[],"categories_segments":[],"categories_sizes":[],"default_left":[0,0,0,0,0,0,0,0,0,0,0,0,0,0,0,0,0,0,0,0,0,0,0,0,0,0,0,0,0,0,0,0,0],"id":0,"left_children":[1,3,5,7,9,-1,11,13,-1,-1,-1,15,-1,17,19,-1,21,-1,23,-1,-1,25,-1,27,-1,-1,-1,29,31,-1,-1,-1,-1],"loss_changes":[1.8316132E2,3.0124619E1,5.1344925E1,3.1146805E1,2.1298227E1,0E0,1.6786102E1,3.3086098E1,0E0,0E0,0E0,8.187149E0,0E0,3.840442E1,1.3120911E1,0E0,3.2424011E0,0E0,2.433142E1,0E0,0E0,3.687479E0,0E0,2.0036236E1,0E0,0E0,0E0,2.1403797E1,9.888475E0,0E0,0E0,0E0,0E0],"parents":[2147483647,0,0,1,1,2,2,3,3,4,4,6,6,7,7,11,11,13,13,14,14,16,16,18,18,21,21,23,23,27,27,28,28],"right_children":[2,4,6,8,10,-1,12,14,-1,-1,-1,16,-1,18,20,-1,22,-1,24,-1,-1,26,-1,28,-1,-1,-1,30,32,-1,-1,-1,-1],"split_conditions":[1.0902925E1,1.3139892E1,2.2799604E1,3.549571E1,6.5753303E0,-1.8765464E-2,3E0,3.7266655E1,1.7498119E-2,-1.0613948E-2,2.405285E-2,1.3139892E1,5.3539494E-4,1.7542906E1,2.3886411E-1,1.7501721E-2,-3.93E0,-3.128207E-2,1.2867639E1,-8.310183E-3,-3.128525E-2,1.66E2,3.5961922E-2,2.1969822E1,-2.2858635E-2,1.655069E-2,3.520977E-2,5.3167887E0,2.8789175E0,-3.1274203E-2,5.683514E-3,2.6841618E-2,5.3539494E-4],"split_indices":[248,221,229,185,295,0,315,242,0,0,0,221,0,229,178,0,208,0,167,0,0,176,0,245,0,0,0,231,206,0,0,0,0],"split_type":[0,0,0,0,0,0,0,0,0,0,0,0,0,0,0,0,0,0,0,0,0,0,0,0,0,0,0,0,0,0,0,0,0],"sum_hessian":[2.2175558E2,1.4870163E2,7.305396E1,1.2775645E2,2.0945177E1,8.159104E0,6.489486E1,1.1938881E2,8.367643E0,9.879554E0,1.1065622E1,5.848227E1,6.4125867E0,6.864857E1,5.0740242E1,1.2551465E1,4.5930805E1,1.7087196E1,5.1561367E1,8.888992E0,4.185125E1,1.2538432E1,3.3392372E1,3.9440014E1,1.2121352E1,6.399553E0,6.138879E0,2.0736637E1,1.8703379E1,6.933935E0,1.3802702E1,1.22907915E1,6.4125867E0],"tree_param":{"num_deleted":"0","num_feature":"384","num_nodes":"33","size_leaf_vector":"1"}},{"base_weights":[2.4163868E-2,-6.129368E-1,1.2792841E0,-9.6482134E-1,5.046075E-1,3.7580904E-1,3.31847E-2,1.8420635E-2,-1.0909616E0,9.1035384E-1,-1.6730014E-2,-3.1229902E-2,1.1111172E0,-1.4847459E0,-5.8759874E-1,4.27803E-1,3.572328E-2,-4.7424803E-3,3.1631336E-2,-1.6824025E0,-4.0425503E-4,3.4367952E-1,-1.320194E0,-1.6397653E-2,2.1538451E-2,-3.096194E-2,-1.4303919E-2,2.782748E-2,-1.1889543E-2,-3.1002097E-2,-1.4161356E-3],"categories":[],"categories_nodes":[],"categories_segments":[],"categories_sizes":[],"default_left":[0,0,0,0,0,0,0,0,0,0,0,0,0,0,0,0,0,0,0,0,0,0,0,0,0,0,0,0,0,0,0],"id":1,"left_children":[1,3,5,7,9,11,-1,-1,13,15,-1,-1,17,19,21,23,-1,-1,-1,25,-1,27,29,-1,-1,-1,-1,-1,-1,-1,-1],"loss_changes":[1.6740262E2,5.46071E1,4.1647568E1,2.7150085E1,1.9956863E1,4.778889E1,0E0,0E0,1.9702805E1,1.4732306E1,0E0,0E0,2.2528511E1,1.6105698E1,2.9791828E1,2.1146606E1,0E0,0E0,0E0,5.057312E0,0E0,2.5455116E1,1.4693665E1,0E0,0E0,0E0,0E0,0E0,0E0,0E0,0E0],"parents":[2147483647,0,0,1,1,2,2,3,3,4,4,5,5,8,8,9,9,12,12,13,13,14,14,15,15,19,19,21,21,22,22],"right_children":[2,4,6,8,10,12,-1,-1,14,16,-1,-1,18,20,22,24,-1,-1,-1,26,-1,28,30,-1,-1,-1,-1,-1,-1,-1,-1],"split_conditions":[1.3139892E1,1.5487912E1,1.7695883E1,5.5634513E0,8.163265E0,3.2838E0,3.31847E-2,1.8420635E-2,2.3657112E1,1.6574335E-1,-1.6730014E-2,-3.1229902E-2,2.733341E1,4.272552E1,1E0,1.5284745E1,3.572328E-2,-4.7424803E-3,3.1631336E-2,3.6530197E0,-4.0425503E-4,2.414744E1,3E0,-1.6397653E-2,2.1538451E-2,-3.096194E-2,-1.4303919E-2,2.782748E-2,-1.1889543E-2,-3.1002097E-2,-1.4161356E-3],"split_indices":[221,268,227,255,211,297,0,0,229,169,0,0,260,258,363,260,0,0,0,207,0,226,286,0,0,0,0,0,0,0,0],"split_type":[0,0,0,0,0,0,0,0,0,0,0,0,0,0,0,0,0,0,0,0,0,0,0,0,0,0,0,0,0,0,0],"sum_hessian":[2.093435E2,1.3885597E2,7.0487526E1,1.0560762E2,3.3248356E1,2.9606085E1,4.0881443E1,6.1528873E0,9.9454735E1,2.6094786E1,7.153571E0,7.4263973E0,2.2179688E1,5.5795265E1,4.365947E1,1.8482836E1,7.6119504E0,7.656722E0,1.45229645E1,4.9143974E1,6.6512885E0,1.9219973E1,2.4439495E1,6.914018E0,1.1568818E1,4.2984413E1,6.159562E0,8.610358E0,1.0609614E1,1.754477E1,6.894726E0],"tree_param":{"num_deleted":"0","num_feature":"384","num_nodes":"31","size_leaf_vector":"1"}},{"base_weights":[5.573338E-2,-7.012751E-1,9.951874E-1,-8.73777E-1,2.7831968E-2,-3.0789353E-2,1.2824763E0,-1.6160661E0,-5.531716E-1,1.5151815E0,3.8516143E-1,-3.0645447E-2,-1.4092067E-2,6.797204E-1,-1.0678184E0,3.4756193E-4,1.6608063E0,-9.454111E-3,2.2696285E-2,-3.0628579E-2,1.5378667E0,-8.47466E-2,-1.4921824E0,3.6974955E-2,1.4571979E0,3.3090305E-2,1.52112935E-2,-1.999611E-2,2.182529E-2,-3.0671865E-2,-1.3210368E-2,1.506364E-3,1.666069E0,3.1817127E-2,1.8911555E-2],"categories":[],"categories_nodes":[],"categories_segments":[],"categories_sizes":[],"default_left":[0,0,0,0,0,0,0,0,0,0,0,0,0,0,0,0,0,0,0,0,0,0,0,0,0,0,0,0,0,0,0,0,0,0,0],"id":2,"left_children":[1,3,5,7,-1,-1,9,11,13,15,17,-1,-1,19,21,-1,23,-1,-1,-1,25,27,29,-1,31,-1,-1,-1,-1,-1,-1,-1,33,-1,-1],"loss_changes":[1.599917E2,4.991388E1,8.04364E1,2.7586815E1,0E0,0E0,1.8995178E1,4.697632E0,5.139216E1,1.5724075E1,1.644957E1,0E0,0E0,5.043251E1,2.3830956E1,0E0,6.597351E0,0E0,0E0,0E0,4.481941E0,2.5251026E1,8.48896E0,0E0,1.3327034E1,0E0,0E0,0E0,0E0,0E0,0E0,0E0,4.2683945E0,0E0,0E0],"parents":[2147483647,0,0,1,1,2,2,3,3,6,6,7,7,8,8,9,9,10,10,13,13,14,14,16,16,20,20,21,21,22,22,24,24,32,32],"right_children":[2,4,6,8,-1,-1,10,12,14,16,18,-1,-1,20,22,-1,24,-1,-1,-1,26,28,30,-1,32,-1,-1,-1,-1,-1,-1,-1,34,-1,-1],"split_conditions":[2E0,5.15311E0,3.078709E0,6.735E1,2.7831968E-2,-3.0789353E-2,1.852903E1,3.0092802E1,2.507903E-1,1.1505249E1,1E0,-3.0645447E-2,-1.4092067E-2,2.0771212E1,1E0,3.4756193E-4,1.8329578E1,-9.454111E-3,2.2696285E-2,-3.0628579E-2,2.5829758E1,3.3761314E1,1.1331113E1,3.6974955E-2,8.253E1,3.3090305E-2,1.52112935E-2,-1.999611E-2,2.182529E-2,-3.0671865E-2,-1.3210368E-2,1.506364E-3,1E0,3.1817127E-2,1.8911555E-2],"split_indices":[304,247,204,250,0,0,245,264,178,255,112,0,0,245,83,0,258,0,0,0,264,258,244,0,250,0,0,0,0,0,0,0,92,0,0],"split_type":[0,0,0,0,0,0,0,0,0,0,0,0,0,0,0,0,0,0,0,0,0,0,0,0,0,0,0,0,0,0,0,0,0,0,0],"sum_hessian":[2.249659E2,1.24576866E2,1.0038903E2,1.159671E2,8.609766E0,9.373194E0,9.101584E1,3.497467E1,8.099243E1,7.22683E1,1.8747532E1,2.8824856E1,6.1498146E0,2.3849154E1,5.7143276E1,6.418082E0,6.585022E1,9.377082E0,9.37045E0,6.158469E0,1.7690685E1,1.72333E1,3.9909977E1,1.9226305E1,4.6623917E1,1.106099E1,6.629694E0,9.595022E0,7.6382766E0,2.8337847E1,1.1572131E1,6.1734486E0,4.045047E1,3.0345966E1,1.0104503E1],"tree_param":{"num_deleted":"0","num_feature":"384","num_nodes":"35","size_leaf_vector":"1"}},{"base_weights":[8.1448525E-2,-5.676093E-1,8.707169E-1,-6.973985E-1,2.7250811E-2,-4.4278258E-1,1.4420164E0,-1.3633683E-1,-1.1890094E0,6.1394244E-1,-1.4179665E0,3.2139685E-2,9.309515E-1,-3.022488E-2,3.2134965E-1,-3.3445996E-1,-1.5032921E0,-5.179766E-3,2.9146885E-2,-1.4300606E-2,-3.0753063E-2,-4.8535275E-3,1.3151225E0,7.1678764E-1,-3.042108E-2,-3.0432211E-2,1.2036402E-2,-8.2738507E-1,-3.0313699E-2,3.068774E-2,1.02999015E-2,-1.2364722E-1,1.2894969E0,-3.0280538E-2,2.5164231E-3,-1.7950868E-2,1.8777076E-2,3.3438575E-2,1.296472E-2],"categories":[],"categories_nodes":[],"categories_segments":[],"categories_sizes":[],"default_left":[0,0,0,0,0,0,0,0,0,0,0,0,0,0,0,0,0,0,0,0,0,0,0,0,0,0,0,0,0,0,0,0,0,0,0,0,0,0,0],"id":3,"left_children":[1,3,5,7,-1,9,11,13,15,17,19,-1,21,-1,23,25,27,-1,-1,-1,-1,-1,29,31,-1,-1,-1,33,-1,-1,-1,35,37,-1,-1,-1,-1,-1,-1],"loss_changes":[1.1353794E2,3.4015446E1,7.505719E1,3.1632477E1,0E0,3.124184E1,1.53224945E1,3.984524E1,1.6409035E1,1.4449509E1,3.4328632E0,0E0,1.4868929E1,0E0,3.4601215E1,2.4505415E1,7.9272842E0,0E0,0E0,0E0,0E0,0E0,8.174847E0,1.6929193E1,0E0,0E0,0E0,1.1432931E1,0E0,0E0,0E0,1.5997175E1,7.344578E0,0E0,0E0,0E0,0E0,0E0,0E0],"parents":[2147483647,0,0,1,1,2,2,3,3,5,5,6,6,7,7,8,8,9,9,10,10,12,12,14,14,15,15,16,16,22,22,23,23,27,27,31,31,32,32],"right_children":[2,4,6,8,-1,10,12,14,16,18,20,-1,22,-1,24,26,28,-1,-1,-1,-1,-1,30,32,-1,-1,-1,34,-1,-1,-1,36,38,-1,-1,-1,-1,-1,-1],"split_conditions":[2E0,5.15311E0,2.3375193E1,2.3258035E0,2.7250811E-2,1E0,1E0,1.05240755E1,2.5082564E-1,2.0184656E1,3.643096E-1,3.2139685E-2,1.4989431E1,-3.022488E-2,6.854716E0,1.2834718E1,-1.9891198E0,-5.179766E-3,2.9146885E-2,-1.4300606E-2,-3.0753063E-2,-4.8535275E-3,2.998162E1,1.7708317E1,-3.042108E-2,-3.0432211E-2,1.2036402E-2,-2.680129E0,-3.0313699E-2,3.068774E-2,1.02999015E-2,1.6065132E1,1.7054893E1,-3.0280538E-2,2.5164231E-3,-1.7950868E-2,1.8777076E-2,3.3438575E-2,1.296472E-2],"split_indices":[304,247,229,187,0,160,279,199,181,231,267,0,197,0,202,167,267,0,0,0,0,0,226,255,0,0,0,267,0,0,0,251,210,0,0,0,0,0,0],"split_type":[0,0,0,0,0,0,0,0,0,0,0,0,0,0,0,0,0,0,0,0,0,0,0,0,0,0,0,0,0,0,0,0,0,0,0,0,0,0,0],"sum_hessian":[2.2162895E2,1.216133E2,1.00015656E2,1.14708275E2,6.9050174E0,3.0312912E1,6.970274E1,5.3575123E1,6.1133152E1,1.4545703E1,1.5767209E1,3.782602E1,3.1876726E1,1.1777876E1,4.1797245E1,1.6442326E1,4.4690826E1,7.883116E0,6.662587E0,6.154094E0,9.613115E0,7.660639E0,2.4216087E1,3.515945E1,6.637798E0,6.8846335E0,9.557693E0,1.25199995E1,3.2170826E1,1.4572128E1,9.643959E0,1.4245562E1,2.0913887E1,6.384341E0,6.135659E0,8.108567E0,6.1369944E0,9.36014E0,1.1553748E1],"tree_param":{"num_deleted":"0","num_feature":"384","num_nodes":"39","size_leaf_vector":"1"}},{"base_weights":[3.742693E-2,-4.5757744E-1,7.43618E-1,-2.7458575E-1,-2.9986043E-2,1.2682375E0,8.508439E-2,-2.9883834E-2,-8.618334E-2,-4.040889E-3,1.5168042E0,5.5337644E-1,-3.0496461E-2,2.1205129E-1,-1.0285909E0,1.3396593E-2,1.7061244E0,3.0476822E-2,-2.7665967E-1,2.9490292E-3,3.7287187E-2,-3.0023836E-2,3.9348826E-3,3.299742E-2,1.3396826E0,1.0612508E-2,-3.0744234E-2,-7.229465E-1,5.0857127E-1,1.3302961E-2,3.346133E-2,2.1061225E-2,-1.4668567E0,1.1714066E0,-6.0721177E-1,-1.3511213E-2,-3.0107597E-2,2.8619513E-2,7.565868E-3,1.679788E-2,-3.0135183E-2],"categories":[],"categories_nodes":[],"categories_segments":[],"categories_sizes":[],"default_left":[0,0,0,0,0,0,0,0,0,0,0,0,0,0,0,0,0,0,0,0,0,0,0,0,0,0,0,0,0,0,0,0,0,0,0,0,0,0,0,0,0],"id":4,"left_children":[1,3,5,7,-1,9,11,-1,13,-1,15,17,-1,19,21,-1,23,-1,25,27,-1,-1,-1,-1,29,-1,-1,31,33,-1,-1,-1,35,37,39,-1,-1,-1,-1,-1,-1],"loss_changes":[7.728867E1,3.0660303E1,3.1471542E1,3.1441517E1,0E0,1.8960075E1,3.522424E1,0E0,2.8355656E1,0E0,6.053261E0,3.2765545E1,0E0,3.139783E1,2.1993748E1,0E0,2.7277145E0,0E0,2.6069124E1,2.5411469E1,0E0,0E0,0E0,0E0,4.4142494E0,0E0,0E0,4.1233387E1,3.0189419E1,0E0,0E0,0E0,4.0046463E0,9.269772E0,2.770552E1,0E0,0E0,0E0,0E0,0E0,0E0],"parents":[2147483647,0,0,1,1,2,2,3,3,5,5,6,6,8,8,10,10,11,11,13,13,14,14,16,16,18,18,19,19,24,24,27,27,28,28,32,32,33,33,34,34],"right_children":[2,4,6,8,-1,10,12,-1,14,-1,16,18,-1,20,22,-1,24,-1,26,28,-1,-1,-1,-1,30,-1,-1,32,34,-1,-1,-1,36,38,40,-1,-1,-1,-1,-1,-1],"split_conditions":[3E0,2.0534163E0,5.856412E-1,5.6660996E4,-2.9986043E-2,4.076878E-1,2.404774E1,-2.9883834E-2,6.8132815E0,-4.040889E-3,6.0808325E0,-2.87405E-1,-3.0496461E-2,1.9666254E1,1.5972761E1,1.3396593E-2,7.2622883E-1,3.0476822E-2,1.0256411E0,1E0,3.7287187E-2,-3.0023836E-2,3.9348826E-3,3.299742E-2,2.9047523E1,1.0612508E-2,-3.0744234E-2,5.027515E0,2.3281417E0,1.3302961E-2,3.346133E-2,2.1061225E-2,1.7293596E1,1.1578947E0,1.4358899E1,-1.3511213E-2,-3.0107597E-2,2.8619513E-2,7.565868E-3,1.679788E-2,-3.0135183E-2],"split_indices":[282,271,171,209,0,171,264,0,202,0,203,170,0,210,238,0,271,0,182,91,0,0,0,0,264,0,0,203,187,0,0,0,258,182,264,0,0,0,0,0,0],"split_type":[0,0,0,0,0,0,0,0,0,0,0,0,0,0,0,0,0,0,0,0,0,0,0,0,0,0,0,0,0,0,0,0,0,0,0,0,0,0,0,0,0],"sum_hessian":[2.2109344E2,1.2997809E2,9.1115364E1,1.13828926E2,1.6149164E1,5.070967E1,4.040569E1,1.2955317E1,1.0087361E2,7.1905594E0,4.351911E1,3.2287766E1,8.117925E0,7.662078E1,2.425283E1,8.907025E0,3.4612087E1,1.3060758E1,1.9227007E1,6.92384E1,7.382372E0,1.54212055E1,8.831624E0,2.1751654E1,1.2860433E1,1.2083502E1,7.1435056E0,2.8422894E1,4.0815514E1,6.6825886E0,6.177844E0,7.846792E0,2.0576101E1,2.5607748E1,1.5207767E1,6.1191325E0,1.4456968E1,1.5247706E1,1.0360041E1,6.3858423E0,8.821924E0],"tree_param":{"num_deleted":"0","num_feature":"384","num_nodes":"41","size_leaf_vector":"1"}},{"base_weights":[-1.3997499E-2,-5.646268E-1,8.4402966E-1,-3.0552405E-1,-1.5192816E0,1.2749268E0,-6.642357E-2,-2.964085E-2,-1.1717606E-1,-2.963502E-2,-1.3110972E-2,-3.0868216E-3,1.4740996E0,9.37586E-1,-1.2948912E0,-1.035836E0,2.1173358E-1,9.256825E-1,2.9968556E-2,4.4852966E-3,3.1664E-2,-3.0627215E-2,-1.3776157E-2,1.0020804E-2,-2.9952297E-2,7.343378E-1,-6.2908065E-1,2.0739357E-3,3.1418256E-2,-2.8658053E-2,1.7197466E0,1.9223632E-2,-1.4225916E0,9.2952234E-1,-2.0810265E-2,2.1084093E-2,3.560043E-2,-1.3772863E-2,-2.9959187E-2,3.2201957E-2,2.2121103E-4],"categories":[],"categories_nodes":[],"categories_segments":[],"categories_sizes":[],"default_left":[0,0,0,0,0,0,0,0,0,0,0,0,0,0,0,0,0,0,0,0,0,0,0,0,0,0,0,0,0,0,0,0,0,0,0,0,0,0,0,0,0],"id":5,"left_children":[1,3,5,7,9,11,13,-1,15,-1,-1,-1,17,19,21,23,25,27,-1,-1,-1,-1,-1,-1,-1,29,31,-1,-1,33,35,-1,37,39,-1,-1,-1,-1,-1,-1,-1],"loss_changes":[1.0272281E2,3.2750168E1,3.33473E1,2.7880222E1,4.4146423E0,1.6722168E1,3.3670296E1,0E0,2.779887E1,0E0,0E0,0E0,7.554657E0,9.20367E0,2.9454308E0,2.7871302E1,2.976286E1,1.2245824E1,0E0,0E0,0E0,0E0,0E0,0E0,0E0,3.1416876E1,3.6030098E1,0E0,0E0,2.670436E1,3.1579018E0,0E0,3.5631752E0,1.1277949E1,0E0,0E0,0E0,0E0,0E0,0E0,0E0],"parents":[2147483647,0,0,1,1,2,2,3,3,4,4,5,5,6,6,8,8,12,12,13,13,14,14,15,15,16,16,17,17,25,25,26,26,29,29,30,30,32,32,33,33],"right_children":[2,4,6,8,10,12,14,-1,16,-1,-1,-1,18,20,22,24,26,28,-1,-1,-1,-1,-1,-1,-1,30,32,-1,-1,34,36,-1,38,40,-1,-1,-1,-1,-1,-1,-1],"split_conditions":[3E0,1E0,6.1853564E-1,5.859304E2,3.1370672E1,3.937636E-1,1.7222222E0,-2.964085E-2,2.4571428E0,-2.963502E-2,-1.3110972E-2,-3.0868216E-3,2.2539976E0,9.677419E-1,1.4684992E0,1E0,-5.934825E-1,1E0,2.9968556E-2,4.4852966E-3,3.1664E-2,-3.0627215E-2,-1.3776157E-2,1.0020804E-2,-2.9952297E-2,2.2553518E0,1.0833334E0,2.0739357E-3,3.1418256E-2,2.39048E0,1.3777124E1,1.9223632E-2,2.4072E0,5.140548E0,-2.0810265E-2,2.1084093E-2,3.560043E-2,-1.3772863E-2,-2.9959187E-2,3.2201957E-2,2.2121103E-4],"split_indices":[282,116,171,195,245,171,183,0,184,0,0,0,189,182,270,283,170,134,0,0,0,0,0,0,0,270,182,0,0,297,262,0,297,202,0,0,0,0,0,0,0],"split_type":[0,0,0,0,0,0,0,0,0,0,0,0,0,0,0,0,0,0,0,0,0,0,0,0,0,0,0,0,0,0,0,0,0,0,0,0,0,0,0,0,0],"sum_hessian":[2.1742636E2,1.3244032E2,8.4986046E1,1.0417243E2,2.826789E1,5.768884E1,2.7297207E1,1.2185003E1,9.198743E1,2.2174284E1,6.093606E0,6.9439297E0,5.0744907E1,1.5018568E1,1.227864E1,2.425567E1,6.773176E1,1.682885E1,3.3916058E1,8.608062E0,6.4105062E0,6.1508145E0,6.1278253E0,7.3848085E0,1.6870861E1,4.177367E1,2.5958088E1,8.909649E0,7.9192004E0,2.3540937E1,1.8232735E1,8.099055E0,1.7859032E1,1.3007954E1,1.0532984E1,7.647346E0,1.0585388E1,6.1209073E0,1.1738125E1,6.3963246E0,6.6116295E0],"tree_param":{"num_deleted":"0","num_feature":"384","num_nodes":"41","size_leaf_vector":"1"}},{"base_weights":[1.16523266E-1,-6.042237E-1,9.989321E-1,-7.3223746E-1,2.6414791E-2,1.2303008E0,-1.1495308E-1,-1.3329726E0,-3.4123394E-1,-2.1733106E-3,1.4235396E0,1.6821347E-2,-1.9714987E-2,-1.5656724E0,-9.979631E-4,-2.9482149E-2,3.485808E-2,1.2289436E-2,1.5545881E0,-1.3229248E-2,-2.9420096E-2,3.157759E-1,-2.9741513E-2,1.304481E0,3.1178173E-2,9.7478706E-1,-4.343328E-1,1.6819099E0,-1.5805681E-3,1.4387964E0,-2.7676986E-3,1.3105376E-2,-2.9607793E-2,1.7936705E-2,3.2493103E-2,1.6647607E-2,3.6173485E-2],"categories":[],"categories_nodes":[],"categories_segments":[],"categories_sizes":[],"default_left":[0,0,0,0,0,0,0,0,0,0,0,0,0,0,0,0,0,0,0,0,0,0,0,0,0,0,0,0,0,0,0,0,0,0,0,0,0],"id":6,"left_children":[1,3,5,7,-1,9,11,13,15,-1,17,-1,-1,19,-1,-1,21,-1,23,-1,-1,25,-1,27,-1,29,31,33,-1,35,-1,-1,-1,-1,-1,-1,-1],"loss_changes":[1.4194827E2,3.3699856E1,2.5866295E1,2.7220314E1,0E0,2.1793747E1,1.9531626E1,1.3548164E1,3.6362823E1,0E0,6.732147E0,0E0,0E0,4.546341E0,0E0,0E0,2.7379797E1,0E0,4.0038757E0,0E0,0E0,2.3528782E1,0E0,1.6560043E1,0E0,1.3363058E1,3.441255E1,3.3107224E0,0E0,5.6259117E0,0E0,0E0,0E0,0E0,0E0,0E0,0E0],"parents":[2147483647,0,0,1,1,2,2,3,3,5,5,6,6,7,7,8,8,10,10,13,13,16,16,18,18,21,21,23,23,25,25,26,26,27,27,29,29],"right_children":[2,4,6,8,-1,10,12,14,16,-1,18,-1,-1,20,-1,-1,22,-1,24,-1,-1,26,-1,28,-1,30,32,34,-1,36,-1,-1,-1,-1,-1,-1,-1],"split_conditions":[3E0,5.15311E0,5.559267E0,7.543E1,2.6414791E-2,3.21355E2,2.5269264E-1,1E0,-2.4306896E0,-2.1733106E-3,1.4526623E0,1.6821347E-2,-1.9714987E-2,2.2453052E-1,-9.979631E-4,-2.9482149E-2,-2.3109267E0,1.2289436E-2,1E0,-1.3229248E-2,-2.9420096E-2,1.8258783E1,-2.9741513E-2,2.5426214E1,3.1178173E-2,4.8083016E-1,2.4583333E0,2.6874888E0,-1.5805681E-3,7.971005E0,-2.7676986E-3,1.3105376E-2,-2.9607793E-2,1.7936705E-2,3.2493103E-2,1.6647607E-2,3.6173485E-2],"split_indices":[282,247,218,250,0,173,178,369,190,0,194,0,0,178,0,0,190,0,97,0,0,196,0,242,0,180,184,193,0,201,0,0,0,0,0,0,0],"split_type":[0,0,0,0,0,0,0,0,0,0,0,0,0,0,0,0,0,0,0,0,0,0,0,0,0,0,0,0,0,0,0,0,0,0,0,0,0],"sum_hessian":[2.2318799E2,1.228439E2,1.0034408E2,1.15922424E2,6.921484E0,8.3089836E1,1.725424E1,4.569835E1,7.0224075E1,1.0354409E1,7.273543E1,8.376213E0,8.878028E0,3.8640976E1,7.05737E0,1.5072464E1,5.515161E1,1.1373122E1,6.136231E1,6.0858564E0,3.2555122E1,4.7591484E1,7.560127E0,3.1401228E1,2.996108E1,2.5337746E1,2.2253738E1,2.472332E1,6.67791E0,1.799309E1,7.3446555E0,1.153982E1,1.0713919E1,6.1642203E0,1.85591E1,1.0582311E1,7.4107795E0],"tree_param":{"num_deleted":"0","num_feature":"384","num_nodes":"37","size_leaf_vector":"1"}},{"base_weights":[-4.4577163E-2,-5.7390064E-1,1.1121639E0,-6.884074E-1,3.4224585E-2,-8.384423E-3,1.3673117E0,-3.3641395E-1,-1.4542077E0,1.5641598E0,-1.9068719E-3,-2.9086161E-2,-6.6156976E-2,-1.2625826E-2,-2.9490154E-2,1.37059465E-2,2.958224E-2,1.0999098E0,-5.790451E-1,4.9737376E-1,3.0508155E-2,2.5968593E-1,-1.4826628E0,1.8212428E-2,-4.0799E-4,-2.9416326E-2,9.081715E-1,-1.269798E-2,-2.9245963E-2,3.3543754E-2,5.583739E-3],"categories":[],"categories_nodes":[],"categories_segments":[],"categories_sizes":[],"default_left":[0,0,0,0,0,0,0,0,0,0,0,0,0,0,0,0,0,0,0,0,0,0,0,0,0,0,0,0,0,0,0],"id":7,"left_children":[1,3,5,7,-1,-1,9,11,13,15,-1,-1,17,-1,-1,-1,-1,19,21,23,-1,25,27,-1,-1,-1,29,-1,-1,-1,-1],"loss_changes":[1.2888344E2,4.245882E1,2.6992485E1,3.7258217E1,0E0,0E0,1.6595367E1,3.476124E1,8.244957E0,6.125702E0,0E0,0E0,4.724821E1,0E0,0E0,0E0,0E0,9.840616E0,4.1595505E1,3.7592869E0,0E0,3.6415375E1,4.3302193E0,0E0,0E0,0E0,1.3049774E1,0E0,0E0,0E0,0E0],"parents":[2147483647,0,0,1,1,2,2,3,3,6,6,7,7,8,8,9,9,12,12,17,17,18,18,19,19,21,21,22,22,26,26],"right_children":[2,4,6,8,-1,-1,10,12,14,16,-1,-1,18,-1,-1,-1,-1,20,22,24,-1,26,28,-1,-1,-1,30,-1,-1,-1,-1],"split_conditions":[6.0760202E0,1.4507586E1,2.2799604E1,1.1566732E1,3.4224585E-2,-8.384423E-3,5.291133E1,3.0515396E2,1.4620751E1,1.0566667E1,-1.9068719E-3,-2.9086161E-2,2.3832392E1,-1.2625826E-2,-2.9490154E-2,1.37059465E-2,2.958224E-2,1E0,1E0,3.7733963E1,3.0508155E-2,7.334E1,5.9879935E-1,1.8212428E-2,-4.0799E-4,-2.9416326E-2,4.4896297E0,-1.269798E-2,-2.9245963E-2,3.3543754E-2,5.583739E-3],"split_indices":[248,167,229,215,0,0,225,175,214,172,0,0,264,0,0,0,0,82,97,225,0,250,265,0,0,0,295,0,0,0,0],"split_type":[0,0,0,0,0,0,0,0,0,0,0,0,0,0,0,0,0,0,0,0,0,0,0,0,0,0,0,0,0,0,0],"sum_hessian":[2.1049835E2,1.4441756E2,6.60808E1,1.3825471E2,6.1628323E0,9.082365E0,5.699844E1,9.4723E1,4.353172E1,5.0304028E1,6.6944113E0,1.5716497E1,7.90065E1,1.1700836E1,3.1830885E1,8.674033E0,4.1629993E1,2.4131844E1,5.4874657E1,1.2777496E1,1.1354347E1,2.84562E1,2.6418459E1,6.1426086E0,6.634888E0,7.0357513E0,2.1420448E1,6.0693274E0,2.034913E1,7.6606483E0,1.3759799E1],"tree_param":{"num_deleted":"0","num_feature":"384","num_nodes":"31","size_leaf_vector":"1"}},{"base_weights":[2.4711082E-2,-4.5392567E-1,1.0720828E0,-5.4628867E-1,2.5918612E-2,-1.787476E-2,1.3458264E0,-2.3932223E-1,-1.2124884E0,1.5579802E0,1.2657574E-3,2.8299123E-1,-7.729472E-1,-2.9066533E-2,-4.512668E-1,2.9501466E-2,1.52891055E-2,-2.8942136E-2,7.5696445E-1,-1.0235482E0,1.3778763E-2,7.2988523E-3,-2.8936423E-2,3.5691276E-1,1.5451833E0,-1.3532221E0,6.108238E-3,1.4049046E0,-5.668276E-1,1.7429484E-2,3.3835832E-2,-5.5820374E-3,-2.8918305E-2,1.4593199E-2,3.437116E-2,-3.0219454E-2,1.1331424E-2],"categories":[],"categories_nodes":[],"categories_segments":[],"categories_sizes":[],"default_left":[0,0,0,0,0,0,0,0,0,0,0,0,0,0,0,0,0,0,0,0,0,0,0,0,0,0,0,0,0,0,0,0,0,0,0,0,0],"id":8,"left_children":[1,3,5,7,-1,-1,9,11,13,15,-1,17,19,-1,21,-1,-1,-1,23,25,-1,-1,-1,27,29,31,-1,33,35,-1,-1,-1,-1,-1,-1,-1,-1],"loss_changes":[1.1273127E2,2.7991692E1,4.0809784E1,3.0136742E1,0E0,0E0,1.684475E1,2.8129164E1,1.701194E1,5.730484E0,0E0,4.7590397E1,1.9714264E1,0E0,1.949311E1,0E0,0E0,0E0,1.29508915E1,1.959375E1,0E0,0E0,0E0,2.6402842E1,3.1073227E0,1.1843391E1,0E0,4.221033E0,2.1233917E1,0E0,0E0,0E0,0E0,0E0,0E0,0E0,0E0],"parents":[2147483647,0,0,1,1,2,2,3,3,6,6,7,7,8,8,9,9,11,11,12,12,14,14,18,18,19,19,23,23,24,24,25,25,27,27,28,28],"right_children":[2,4,6,8,-1,-1,10,12,14,16,-1,18,20,-1,22,-1,-1,-1,24,26,-1,-1,-1,28,30,32,-1,34,36,-1,-1,-1,-1,-1,-1,-1,-1],"split_conditions":[6.0760202E0,5.349906E0,2.2799604E1,9.720841E0,2.5918612E-2,-1.787476E-2,3E0,1E0,1E0,1.19176445E1,1.2657574E-3,3.03112E2,1.0873767E3,-2.9066533E-2,2.453418E1,2.9501466E-2,1.52891055E-2,-2.8942136E-2,1.4617749E-1,1.6133831E1,1.3778763E-2,7.2988523E-3,-2.8936423E-2,7.1167773E2,2.19903E0,1.2294269E1,6.108238E-3,1.429148E1,5.4149904E0,1.7429484E-2,3.3835832E-2,-5.5820374E-3,-2.8918305E-2,1.4593199E-2,3.437116E-2,-3.0219454E-2,1.1331424E-2],"split_indices":[248,247,229,261,0,0,286,96,329,254,0,175,195,0,234,0,0,0,169,243,0,0,0,195,266,255,0,252,232,0,0,0,0,0,0,0,0],"split_type":[0,0,0,0,0,0,0,0,0,0,0,0,0,0,0,0,0,0,0,0,0,0,0,0,0,0,0,0,0,0,0,0,0,0,0,0,0],"sum_hessian":[2.2486655E2,1.5433319E2,7.053335E1,1.4740388E2,6.929312E0,8.085737E0,6.2447613E1,1.0091358E2,4.64903E1,5.351796E1,8.929653E0,5.099244E1,4.9921146E1,2.8484114E1,1.8006186E1,4.31145E1,1.0403462E1,9.890108E0,4.110233E1,4.3074085E1,6.8470597E0,1.0527971E1,7.478214E0,2.7268969E1,1.3833363E1,3.476844E1,8.305645E0,1.2777878E1,1.449109E1,6.173422E0,7.6599407E0,8.48471E0,2.6283731E1,6.6320133E0,6.145865E0,7.3469524E0,7.144137E0],"tree_param":{"num_deleted":"0","num_feature":"384","num_nodes":"37","size_leaf_vector":"1"}},{"base_weights":[9.735868E-2,-5.02319E-1,1.1543504E0,2.0966323E-2,-6.3165957E-1,-6.267161E-2,1.4088957E0,-2.6357794E-1,-1.213592E0,-1.6592009E-2,1.7423375E-2,1.6110998E0,7.71219E-1,-9.894015E-1,2.4749054E-1,-4.9579597E-1,-2.87035E-2,3.0760186E-2,1.1945505E0,-3.216952E-3,2.6412465E-2,7.971085E-3,-2.8935278E-2,1.1743057E0,-3.212802E-1,9.540489E-3,-2.8722204E-2,9.438509E-3,3.0864147E-2,3.2515492E-2,5.851881E-3,-2.88741E-2,1.3983288E-1,2.046395E-2,-1.30528305E-2],"categories":[],"categories_nodes":[],"categories_segments":[],"categories_sizes":[],"default_left":[0,0,0,0,0,0,0,0,0,0,0,0,0,0,0,0,0,0,0,0,0,0,0,0,0,0,0,0,0,0,0,0,0,0,0],"id":9,"left_children":[1,3,5,-1,7,9,11,13,15,-1,-1,17,19,21,23,25,-1,-1,27,-1,-1,-1,-1,29,31,-1,-1,-1,-1,-1,-1,-1,33,-1,-1],"loss_changes":[1.3673445E2,3.068348E1,2.4197227E1,0E0,2.741505E1,1.3157548E1,8.314972E0,2.9096075E1,1.6321175E1,0E0,0E0,3.6826553E0,1.1454067E1,3.282178E1,2.42626E1,2.396259E1,0E0,0E0,5.772562E0,0E0,0E0,0E0,0E0,1.0493343E1,1.7902866E1,0E0,0E0,0E0,0E0,0E0,0E0,0E0,2.0181135E1,0E0,0E0],"parents":[2147483647,0,0,1,1,2,2,4,4,5,5,6,6,7,7,8,8,11,11,12,12,13,13,14,14,15,15,18,18,23,23,24,24,32,32],"right_children":[2,4,6,-1,8,10,12,14,16,-1,-1,18,20,22,24,26,-1,-1,28,-1,-1,-1,-1,30,32,-1,-1,-1,-1,-1,-1,-1,34,-1,-1],"split_conditions":[1.3139892E1,9.894023E0,2.2799604E1,2.0966323E-2,1.2745283E1,1.84E0,1.0802663E1,9.37062E1,1.7741935E0,-1.6592009E-2,1.7423375E-2,1.3485323E1,2.1856695E1,2.7517338E0,1.4063715E1,6.009012E0,-2.87035E-2,3.0760186E-2,2.0457712E1,-3.216952E-3,2.6412465E-2,7.971085E-3,-2.8935278E-2,1.211475E1,1.006972E2,9.540489E-3,-2.8722204E-2,9.438509E-3,3.0864147E-2,3.2515492E-2,5.851881E-3,-2.88741E-2,1.033507E2,2.046395E-2,-1.30528305E-2],"split_indices":[221,186,229,0,168,183,254,298,183,0,0,268,239,212,197,191,0,0,268,0,0,0,0,245,298,0,0,0,0,0,0,0,298,0,0],"split_type":[0,0,0,0,0,0,0,0,0,0,0,0,0,0,0,0,0,0,0,0,0,0,0,0,0,0,0,0,0,0,0,0,0,0,0],"sum_hessian":[2.1571353E2,1.3762692E2,7.808661E1,9.60244E0,1.2802449E2,1.35035925E1,6.4583015E1,7.84271E1,4.9597385E1,7.3464465E0,6.157146E0,4.9028175E1,1.5554837E1,3.2409233E1,4.6017864E1,1.93435E1,3.0253885E1,3.416352E1,1.48646555E1,6.9139943E0,8.640842E0,1.0494716E1,2.1914518E1,1.7503983E1,2.8513884E1,1.0216094E1,9.127406E0,7.1928086E0,7.671847E0,9.386368E0,8.117615E0,7.21856E0,2.1295322E1,9.820797E0,1.1474526E1],"tree_param":{"num_deleted":"0","num_feature":"384","num_nodes":"35","size_leaf_vector":"1"}},{"base_weights":[9.071899E-2,-4.5950243E-1,1.1660668E0,-5.6517106E-1,3.1940807E-2,-4.3318435E-3,1.3252345E0,-7.1003896E-1,8.195116E-1,8.0360216E-1,1.5337813E0,-3.0999482E-1,-1.324736E0,-5.673126E-4,2.8607113E-2,-6.519645E-3,2.7918706E-2,1.5461576E-2,1.626713E0,-9.894044E-1,4.7116297E-1,-2.841696E-2,-4.022788E-3,3.3964798E-2,1.4031868E0,-2.8438872E-2,-3.2388192E-1,7.711502E-1,-1.478145E-2,2.7200626E-2,1.4235761E-2,1.301265E-2,-2.8882151E-2,9.995594E-2,1.2535053E0,1.6998893E-2,-1.3776704E-2,3.0110717E-2,1.0242308E-2],"categories":[],"categories_nodes":[],"categories_segments":[],"categories_sizes":[],"default_left":[0,0,0,0,0,0,0,0,0,0,0,0,0,0,0,0,0,0,0,0,0,0,0,0,0,0,0,0,0,0,0,0,0,0,0,0,0,0,0],"id":10,"left_children":[1,3,5,7,-1,-1,9,11,13,15,17,19,21,-1,-1,-1,-1,-1,23,25,27,-1,-1,-1,29,-1,31,33,-1,-1,-1,-1,-1,35,37,-1,-1,-1,-1],"loss_changes":[1.3132869E2,3.599475E1,1.6967758E1,2.8169369E1,0E0,0E0,7.3365555E0,3.1254448E1,9.613293E0,1.8806225E1,2.824997E0,4.087853E1,1.8073143E1,0E0,0E0,0E0,0E0,0E0,3.293892E0,1.8291256E1,1.4317989E1,0E0,0E0,0E0,2.6698914E0,0E0,3.0342834E1,9.460543E0,0E0,0E0,0E0,0E0,0E0,9.832937E0,5.583063E0,0E0,0E0,0E0,0E0],"parents":[2147483647,0,0,1,1,2,2,3,3,6,6,7,7,8,8,9,9,10,10,11,11,12,12,18,18,19,19,20,20,24,24,26,26,27,27,33,33,34,34],"right_children":[2,4,6,8,-1,-1,10,12,14,16,18,20,22,-1,-1,-1,-1,-1,24,26,28,-1,-1,-1,30,-1,32,34,-1,-1,-1,-1,-1,36,38,-1,-1,-1,-1],"split_conditions":[6.0760202E0,4.859886E0,6E0,2.5501444E1,3.1940807E-2,-4.3318435E-3,2.2539976E0,6.188155E0,7.81179E1,2.7565138E1,1.200804E1,1.7225405E1,1E0,-5.673126E-4,2.8607113E-2,-6.519645E-3,2.7918706E-2,1.5461576E-2,2.8284762E0,2E0,2.6E1,-2.841696E-2,-4.022788E-3,3.3964798E-2,1.2837437E1,-2.8438872E-2,9.9679575E0,1.0633577E1,-1.478145E-2,2.7200626E-2,1.4235761E-2,1.301265E-2,-2.8882151E-2,-2.223727E0,-2.1805246E0,1.6998893E-2,-1.3776704E-2,3.0110717E-2,1.0242308E-2],"split_indices":[248,207,287,260,0,0,189,202,235,260,199,196,53,0,0,0,0,0,206,314,273,0,0,0,265,0,260,260,0,0,0,0,0,188,188,0,0,0,0],"split_type":[0,0,0,0,0,0,0,0,0,0,0,0,0,0,0,0,0,0,0,0,0,0,0,0,0,0,0,0,0,0,0,0,0,0,0,0,0,0,0],"sum_hessian":[2.2195287E2,1.468233E2,7.512957E1,1.4043074E2,6.3925624E0,7.5766206E0,6.755295E1,1.27133575E2,1.3297157E1,1.9301035E1,4.8251915E1,7.701855E1,5.0115032E1,6.6247272E0,6.67243E0,7.914441E0,1.1386593E1,6.184829E0,4.2067085E1,4.119548E1,3.5823067E1,3.844274E1,1.1672291E1,1.632375E1,2.5743336E1,2.0562698E1,2.063278E1,2.9242891E1,6.580175E0,1.9547113E1,6.1962233E0,1.1484364E1,9.1484165E0,1.22324E1,1.701049E1,6.1606064E0,6.0717936E0,9.646248E0,7.3642426E0],"tree_param":{"num_deleted":"0","num_feature":"384","num_nodes":"39","size_leaf_vector":"1"}},{"base_weights":[-1.3269696E-1,8.8587487E-1,-6.886019E-1,1.1332763E0,-2.8858248E-2,2.8438354E-2,-1.0708556E0,7.243736E-1,1.5792776E0,4.040666E-1,-2.0355035E-2,-5.275844E-1,-1.4328462E0,2.8204374E-2,2.5643018E-1,1.149569E0,3.2357305E-2,-1.1557115E-2,9.3243176E-1,-2.8751204E-2,4.4876516E-1,-9.938568E-1,-2.8238641E-2,8.784813E-1,-1.726688E-2,2.9683337E-2,1.0529862E-2,-4.464131E-3,1.515875E0,-1.5607255E-2,2.2981923E-2,5.894652E-4,-2.855078E-2,3.7666357E-3,3.1203633E-2,3.5316966E-2,1.7520228E-2],"categories":[],"categories_nodes":[],"categories_segments":[],"categories_sizes":[],"default_left":[0,0,0,0,0,0,0,0,0,0,0,0,0,0,0,0,0,0,0,0,0,0,0,0,0,0,0,0,0,0,0,0,0,0,0,0,0],"id":11,"left_children":[1,3,5,7,-1,9,11,13,15,17,-1,19,21,-1,23,25,-1,-1,27,-1,29,31,-1,33,-1,-1,-1,-1,35,-1,-1,-1,-1,-1,-1,-1,-1],"loss_changes":[1.13701385E2,4.5026325E1,3.5612682E1,1.1781273E1,0E0,2.060009E1,1.6655037E1,1.4499241E1,4.049835E0,1.9642002E1,0E0,3.7979275E1,4.7281494E0,0E0,1.7559835E1,3.9879742E0,0E0,0E0,1.6115223E1,0E0,2.2139019E1,1.1430653E1,0E0,9.266503E0,0E0,0E0,0E0,0E0,4.15485E0,0E0,0E0,0E0,0E0,0E0,0E0,0E0,0E0],"parents":[2147483647,0,0,1,1,2,2,3,3,5,5,6,6,7,7,8,8,9,9,11,11,12,12,14,14,15,15,18,18,20,20,21,21,23,23,28,28],"right_children":[2,4,6,8,-1,10,12,14,16,18,-1,20,22,-1,24,26,-1,-1,28,-1,30,32,-1,34,-1,-1,-1,-1,36,-1,-1,-1,-1,-1,-1,-1,-1],"split_conditions":[6.302991E-1,8.315553E0,1E0,3E0,-2.8858248E-2,2.173913E-1,1.240878E1,4.1813194E1,1.0149985E1,3.0809242E-2,-2.0355035E-2,3.4942918E0,4.7849708E0,2.8204374E-2,1.3485323E1,1.1376349E1,3.2357305E-2,-1.1557115E-2,5.90718E0,-2.8751204E-2,5.817863E0,1E0,-2.8238641E-2,2.309901E1,-1.726688E-2,2.9683337E-2,1.0529862E-2,-4.464131E-3,2.5023422E0,-1.5607255E-2,2.2981923E-2,5.894652E-4,-2.855078E-2,3.7666357E-3,3.1203633E-2,3.5316966E-2,1.7520228E-2],"split_indices":[171,295,127,328,0,272,168,225,200,269,0,204,295,0,268,268,0,0,251,0,239,363,0,259,0,0,0,0,207,0,0,0,0,0,0,0,0],"split_type":[0,0,0,0,0,0,0,0,0,0,0,0,0,0,0,0,0,0,0,0,0,0,0,0,0,0,0,0,0,0,0,0,0,0,0,0,0],"sum_hessian":[2.0080614E2,7.089589E1,1.2991025E2,6.466618E1,6.229706E0,4.5168587E1,8.474165E1,3.3742363E1,3.0923824E1,3.450117E1,1.0667412E1,3.389177E1,5.0849884E1,1.1381385E1,2.2360977E1,1.2868295E1,1.8055529E1,1.1348987E1,2.3152185E1,1.558231E1,1.8309462E1,1.6590267E1,3.4259617E1,1.498266E1,7.3783164E0,6.176813E0,6.6914816E0,7.603094E0,1.5549092E1,7.2474117E0,1.1062049E1,6.540095E0,1.0050173E1,8.809212E0,6.1734486E0,7.4191613E0,8.1299305E0],"tree_param":{"num_deleted":"0","num_feature":"384","num_nodes":"37","size_leaf_vector":"1"}},{"base_weights":[6.128328E-2,-4.4691047E-1,1.055457E0,-5.7314926E-1,3.0265333E-2,-1.6789837E-2,1.2908182E0,-2.8441818E-2,-4.153611E-1,1.5076363E0,3.5290945E-1,1.05087616E-1,-8.601452E-1,1.0733774E-2,2.7985232E-2,-2.8715215E-3,1.5388092E-2,4.714895E-1,-2.8553497E-2,1.6945772E-2,-1.0592935E0,-2.9177472E-2,8.1217754E-1,-3.9110306E-1,-2.7792374E-2,1.1813546E0,-2.810983E-3,4.675633E-1,-1.2321619E0,-0E0,2.6199933E-2,-1.2100546E-2,2.5592638E-2,-2.8036164E-2,-1.2421221E-2],"categories":[],"categories_nodes":[],"categories_segments":[],"categories_sizes":[],"default_left":[0,0,0,0,0,0,0,0,0,0,0,0,0,0,0,0,0,0,0,0,0,0,0,0,0,0,0,0,0,0,0,0,0,0,0],"id":12,"left_children":[1,3,5,7,-1,-1,9,-1,11,13,15,17,19,-1,-1,-1,-1,21,-1,-1,23,-1,25,27,-1,29,-1,31,33,-1,-1,-1,-1,-1,-1],"loss_changes":[1.1203307E2,4.0934708E1,3.590503E1,2.372984E1,0E0,0E0,1.3662193E1,0E0,2.8053455E1,5.907486E0,3.5752428E0,3.6175568E1,2.4040329E1,0E0,0E0,0E0,0E0,3.4212685E1,0E0,0E0,2.206002E1,0E0,1.4410765E1,1.9429565E1,0E0,1.1823086E1,0E0,1.5974843E1,2.7611008E0,0E0,0E0,0E0,0E0,0E0,0E0],"parents":[2147483647,0,0,1,1,2,2,3,3,6,6,8,8,9,9,10,10,11,11,12,12,17,17,20,20,22,22,23,23,25,25,27,27,28,28],"right_children":[2,4,6,8,-1,-1,10,-1,12,14,16,18,20,-1,-1,-1,-1,22,-1,-1,24,-1,26,28,-1,30,-1,32,34,-1,-1,-1,-1,-1,-1],"split_conditions":[6.0760202E0,5.349906E0,2.2799604E1,9.589074E0,3.0265333E-2,-1.6789837E-2,1.19176445E1,-2.8441818E-2,2.3258035E0,1.3895663E2,1.4407408E1,1.1567374E1,2E0,1.0733774E-2,2.7985232E-2,-2.8715215E-3,1.5388092E-2,3.0537828E1,-2.8553497E-2,1.6945772E-2,1.2132734E1,-2.9177472E-2,2.348298E1,1.9005127E1,-2.7792374E-2,7.3771133E0,-2.810983E-3,-2.3349633E0,2.4849808E1,-0E0,2.6199933E-2,-1.2100546E-2,2.5592638E-2,-2.8036164E-2,-1.2421221E-2],"split_indices":[248,247,229,228,0,0,254,0,187,213,172,215,309,0,0,0,0,225,0,0,259,0,226,228,0,200,0,190,226,0,0,0,0,0,0],"split_type":[0,0,0,0,0,0,0,0,0,0,0,0,0,0,0,0,0,0,0,0,0,0,0,0,0,0,0,0,0,0,0,0,0,0,0],"sum_hessian":[2.21739E2,1.4672974E2,7.500926E1,1.3880437E2,7.925367E0,7.778167E0,6.7231094E1,1.763348E1,1.2117089E2,5.460288E1,1.2628216E1,5.583085E1,6.534004E1,6.6801925E0,4.7922688E1,6.448395E0,6.1798215E0,4.6252296E1,9.57855E0,6.355451E0,5.8984596E1,6.2704473E0,3.998185E1,2.6898067E1,3.208653E1,2.9012478E1,1.0969372E1,1.3306703E1,1.3591364E1,6.562348E0,2.2450129E1,6.199506E0,7.107197E0,7.5902348E0,6.001129E0],"tree_param":{"num_deleted":"0","num_feature":"384","num_nodes":"35","size_leaf_vector":"1"}},{"base_weights":[-9.876872E-3,-5.346944E-1,8.4327877E-1,-6.4018726E-1,2.2606507E-2,1.0499856E0,-2.875298E-2,-2.3005676E-1,-1.2824816E0,1.3741374E0,1.991727E-1,-2.7701518E-2,1.972048E-1,3.2490192E-3,-1.490044E0,9.387136E-1,1.6193423E0,-1.0136176E-2,1.7321879E-2,6.1297005E-1,-9.791533E-1,-2.786254E-2,-1.190909E-2,2.6756214E-2,-3.6358174E-3,1.3094362E0,3.295878E-2,-1.6541238E-1,1.1898892E0,-2.9591316E-2,2.5444722E-3,3.0144516E-2,1.3859818E-2,1.4841943E-2,-2.8902542E-2,2.6253821E-2,2.5167803E-3],"categories":[],"categories_nodes":[],"categories_segments":[],"categories_sizes":[],"default_left":[0,0,0,0,0,0,0,0,0,0,0,0,0,0,0,0,0,0,0,0,0,0,0,0,0,0,0,0,0,0,0,0,0,0,0,0,0],"id":13,"left_children":[1,3,5,7,-1,9,-1,11,13,15,17,-1,19,-1,21,23,25,-1,-1,27,29,-1,-1,-1,-1,31,-1,33,35,-1,-1,-1,-1,-1,-1,-1,-1],"loss_changes":[9.612832E1,2.5964935E1,4.2563656E1,3.3122498E1,0E0,2.0832253E1,0E0,4.5395905E1,1.4977661E1,5.8283463E0,1.3341708E1,0E0,2.8683353E1,0E0,4.547127E0,1.4077751E1,3.2468338E0,0E0,0E0,1.9466688E1,1.2868293E1,0E0,0E0,0E0,0E0,3.8556213E0,0E0,2.8856983E1,8.814579E0,0E0,0E0,0E0,0E0,0E0,0E0,0E0,0E0],"parents":[2147483647,0,0,1,1,2,2,3,3,5,5,7,7,8,8,9,9,10,10,12,12,14,14,15,15,16,16,19,19,20,20,25,25,27,27,28,28],"right_children":[2,4,6,8,-1,10,-1,12,14,16,18,-1,20,-1,22,24,26,-1,-1,28,30,-1,-1,-1,-1,32,-1,34,36,-1,-1,-1,-1,-1,-1,-1,-1],"split_conditions":[9.649951E2,4.082773E1,1.1196888E1,2.3209074E0,2.2606507E-2,5.559267E0,-2.875298E-2,8.408166E4,5.027515E0,2.8876518E1,1.1381314E1,-2.7701518E-2,4.561448E1,3.2490192E-3,9.1283386E2,4.209372E1,7.248867E0,-1.0136176E-2,1.7321879E-2,2.2799604E1,6.905909E0,-2.786254E-2,-1.190909E-2,2.6756214E-2,-3.6358174E-3,2.8284762E0,3.295878E-2,-2.1337733E0,2.4340351E1,-2.9591316E-2,2.5444722E-3,3.0144516E-2,1.3859818E-2,1.4841943E-2,-2.8902542E-2,2.6253821E-2,2.5167803E-3],"split_indices":[195,229,211,187,0,218,0,209,202,229,256,0,225,0,195,225,202,0,0,229,202,0,0,0,0,206,0,188,226,0,0,0,0,0,0,0,0],"split_type":[0,0,0,0,0,0,0,0,0,0,0,0,0,0,0,0,0,0,0,0,0,0,0,0,0,0,0,0,0,0,0,0,0,0,0,0,0],"sum_hessian":[2.1469481E2,1.329295E2,8.176531E1,1.2576773E2,7.16177E0,7.556541E1,6.1999063E0,7.676096E1,4.9006767E1,5.471383E1,2.085158E1,1.8110832E1,5.865013E1,6.0540433E0,4.2952724E1,1.9719093E1,3.4994736E1,1.0554982E1,1.0296597E1,4.3337578E1,1.5312552E1,3.678645E1,6.166275E0,1.2815501E1,6.903592E0,1.7249296E1,1.774544E1,1.8443987E1,2.4893593E1,9.222984E0,6.089568E0,9.119389E0,8.129908E0,1.0987151E1,7.4568353E0,1.8774551E1,6.119042E0],"tree_param":{"num_deleted":"0","num_feature":"384","num_nodes":"37","size_leaf_vector":"1"}},{"base_weights":[1.0290683E-2,-5.2747595E-1,8.224398E-1,-1.1503326E0,-4.5887767E-3,-9.0382284E-1,1.1572734E0,-1.5001258E0,1.229552E-2,-2.7674261E-2,3.0247447E-1,-2.8336E-2,1.0558803E-3,1.4901767E0,5.5067617E-1,-1.2797562E-2,-2.7673842E-2,9.198277E-1,-6.778275E-1,1.2320343E0,3.0206308E-2,-1.7463135E-2,1.1349306E0,1.3670508E0,8.147163E-2,-2.8352045E-2,9.876102E-3,2.6000075E-2,9.902972E-3,8.747779E-6,2.9256076E-2,3.368878E-3,3.0383216E-2,-1.3840379E-2,1.7618988E-2],"categories":[],"categories_nodes":[],"categories_segments":[],"categories_sizes":[],"default_left":[0,0,0,0,0,0,0,0,0,0,0,0,0,0,0,0,0,0,0,0,0,0,0,0,0,0,0,0,0,0,0,0,0,0,0],"id":14,"left_children":[1,3,5,7,9,11,13,15,-1,-1,17,-1,-1,19,21,-1,-1,23,25,27,-1,-1,29,31,33,-1,-1,-1,-1,-1,-1,-1,-1,-1,-1],"loss_changes":[9.380143E1,4.2074955E1,4.9456985E1,3.850448E1,3.4686756E1,1.003142E1,1.4461174E1,4.193161E0,0E0,0E0,3.5694626E1,0E0,0E0,3.205841E0,2.3271267E1,0E0,0E0,1.35619545E1,2.7822033E1,4.3706474E0,0E0,0E0,1.1950396E1,1.1128334E1,1.056896E1,0E0,0E0,0E0,0E0,0E0,0E0,0E0,0E0,0E0,0E0],"parents":[2147483647,0,0,1,1,2,2,3,3,4,4,5,5,6,6,7,7,10,10,13,13,14,14,17,17,18,18,19,19,22,22,23,23,24,24],"right_children":[2,4,6,8,10,12,14,16,-1,-1,18,-1,-1,20,22,-1,-1,24,26,28,-1,-1,30,32,34,-1,-1,-1,-1,-1,-1,-1,-1,-1,-1],"split_conditions":[1E0,1.0129303E1,2.8937098E-1,7.255444E1,5.1376805E0,2.8322E0,1.3485323E1,5.9531555E0,1.229552E-2,-2.7674261E-2,1.1418272E1,-2.8336E-2,1.0558803E-3,3.416695E0,6.595785E0,-1.2797562E-2,-2.7673842E-2,1.5248837E2,3.5817902E0,1.4781469E0,3.0206308E-2,-1.7463135E-2,1.7323112E1,1.4790515E1,3.616689E0,-2.8352045E-2,9.876102E-3,2.6000075E-2,9.902972E-3,8.747779E-6,2.9256076E-2,3.368878E-3,3.0383216E-2,-1.3840379E-2,1.7618988E-2],"split_indices":[105,186,269,235,202,297,268,268,0,0,215,0,0,269,202,0,0,213,207,269,0,0,239,238,207,0,0,0,0,0,0,0,0,0,0],"split_type":[0,0,0,0,0,0,0,0,0,0,0,0,0,0,0,0,0,0,0,0,0,0,0,0,0,0,0,0,0,0,0,0,0,0,0],"sum_hessian":[2.1476938E2,1.292078E2,8.5561584E1,5.8962463E1,7.024533E1,1.3897302E1,7.166428E1,4.9659756E1,9.302709E0,1.1266996E1,5.8978333E1,7.837085E0,6.0602164E0,4.626512E1,2.5399166E1,6.43686E0,4.3222893E1,3.6191624E1,2.2786707E1,2.3650816E1,2.2614305E1,6.8920517E0,1.8507114E1,2.3597345E1,1.2594278E1,1.2823789E1,9.962919E0,1.6513351E1,7.1374645E0,6.189557E0,1.2317557E1,6.0478845E0,1.7549461E1,6.4908843E0,6.103394E0],"tree_param":{"num_deleted":"0","num_feature":"384","num_nodes":"35","size_leaf_vector":"1"}},{"base_weights":[6.9028296E-2,-3.9990705E-1,8.028085E-1,-2.7135257E-2,-1.9358556E-1,1.2721766E0,-1.4970958E-1,1.13465406E-1,-1.1809857E0,-1.4422742E-3,1.4425404E0,2.341001E-2,-8.3633846E-1,2.6109564E-1,-2.7853385E-2,8.250718E-4,-2.7174579E-2,1.3116012E-2,2.703469E-2,3.6609846E-3,-2.2462409E-2,4.653927E-1,-8.249845E-1,-1.5100557E-2,6.197377E-1,2.1419034E-3,-2.8874326E-2,5.213341E-2,1.05335E0,-1.1732729E-2,2.4966933E-2,1.5823089E-3,2.4162386E-2],"categories":[],"categories_nodes":[],"categories_segments":[],"categories_sizes":[],"default_left":[0,0,0,0,0,0,0,0,0,0,0,0,0,0,0,0,0,0,0,0,0,0,0,0,0,0,0,0,0,0,0,0,0],"id":15,"left_children":[1,3,5,-1,7,9,11,13,15,-1,17,-1,19,21,-1,-1,-1,-1,-1,-1,-1,23,25,-1,27,-1,-1,29,31,-1,-1,-1,-1],"loss_changes":[7.573088E1,3.2709435E1,3.837129E1,0E0,3.466059E1,1.32899475E1,2.9434586E1,2.2341574E1,1.3415955E1,0E0,4.581772E0,0E0,9.668268E0,1.7828142E1,0E0,0E0,0E0,0E0,0E0,0E0,0E0,1.404226E1,1.0364363E1,0E0,1.4929024E1,0E0,0E0,2.7126713E1,1.1709488E1,0E0,0E0,0E0,0E0],"parents":[2147483647,0,0,1,1,2,2,4,4,5,5,6,6,7,7,8,8,10,10,12,12,13,13,21,21,22,22,24,24,27,27,28,28],"right_children":[2,4,6,-1,8,10,12,14,16,-1,18,-1,20,22,-1,-1,-1,-1,-1,-1,-1,24,26,-1,28,-1,-1,30,32,-1,-1,-1,-1],"split_conditions":[1E0,1.5742276E1,1.19176445E1,-2.7135257E-2,1E0,1.1866245E1,4.8616245E1,3.7484806E0,2.982892E1,-1.4422742E-3,2.2526789E0,2.341001E-2,1.1505249E1,5.970998E0,-2.7853385E-2,8.250718E-4,-2.7174579E-2,1.3116012E-2,2.703469E-2,3.6609846E-3,-2.2462409E-2,-4.9659857E-1,-1.1796883E-1,-1.5100557E-2,-1.17242455E-1,2.1419034E-3,-2.8874326E-2,3.5794518E0,1.8524677E1,-1.1732729E-2,2.4966933E-2,1.5823089E-3,2.4162386E-2],"split_indices":[335,196,254,0,116,255,235,206,235,0,189,0,255,263,0,0,0,0,0,0,0,179,192,0,192,0,0,207,224,0,0,0,0],"split_type":[0,0,0,0,0,0,0,0,0,0,0,0,0,0,0,0,0,0,0,0,0,0,0,0,0,0,0,0,0,0,0,0,0],"sum_hessian":[2.2008058E2,1.3426753E2,8.581304E1,1.996321E1,1.1430433E2,5.7489555E1,2.8323488E1,8.718679E1,2.711753E1,6.412403E0,5.1077152E1,8.836372E0,1.9487116E1,8.0357376E1,6.8294177E0,6.6840644E0,2.0433466E1,8.357403E0,4.271975E1,6.0448446E0,1.3442271E1,6.763896E1,1.2718416E1,6.9584475E0,6.068051E1,6.0310545E0,6.6873612E0,2.6285048E1,3.4395466E1,1.7238583E1,9.046465E0,9.270313E0,2.5125153E1],"tree_param":{"num_deleted":"0","num_feature":"384","num_nodes":"33","size_leaf_vector":"1"}},{"base_weights":[-5.6851514E-2,9.0964794E-1,-4.8935497E-1,1.2241672E0,-2.793883E-2,-5.747836E-2,-1.1197666E0,9.583603E-1,3.0318366E-2,-2.7094427E-2,3.5305125E-1,7.1335905E-3,-1.3713082E0,2.30216E-2,-1.650639E-2,5.912342E-1,-1.8564332E-2,1.7582946E-3,-2.720888E-2,-4.8171347E-3,8.1927735E-1,5.437663E-2,1.2332067E0,1.6683502E-2,-1.6214147E-2,1.6712228E0,6.5328907E-3,1.6883133E-2,3.4084987E-2],"categories":[],"categories_nodes":[],"categories_segments":[],"categories_sizes":[],"default_left":[0,0,0,0,0,0,0,0,0,0,0,0,0,0,0,0,0,0,0,0,0,0,0,0,0,0,0,0,0],"id":16,"left_children":[1,3,5,7,-1,9,11,13,-1,-1,15,-1,17,-1,-1,19,-1,-1,-1,-1,21,23,25,-1,-1,27,-1,-1,-1],"loss_changes":[8.651748E1,5.1062134E1,3.8925465E1,8.1916275E0,0E0,5.3001465E1,2.2455597E1,2.8097698E1,0E0,0E0,2.2832802E1,0E0,1.5758636E1,0E0,0E0,1.1398569E1,0E0,0E0,0E0,0E0,1.4379168E1,1.4631246E1,1.0997574E1,0E0,0E0,4.1968E0,0E0,0E0,0E0],"parents":[2147483647,0,0,1,1,2,2,3,3,5,5,6,6,7,7,10,10,12,12,15,15,20,20,21,21,22,22,25,25],"right_children":[2,4,6,8,-1,10,12,14,-1,-1,16,-1,18,-1,-1,20,-1,-1,-1,-1,22,24,26,-1,-1,28,-1,-1,-1],"split_conditions":[5.856412E-1,3.821515E1,2.5875717E1,3.0917763E1,-2.793883E-2,1.5526733E1,5.9531555E0,2.36088E1,3.0318366E-2,-2.7094427E-2,1.2181069E1,7.1335905E-3,9.966834E0,2.30216E-2,-1.650639E-2,6.041841E0,-1.8564332E-2,1.7582946E-3,-2.720888E-2,-4.8171347E-3,1.0137321E1,2.368926E1,2.3229488E1,1.6683502E-2,-1.6214147E-2,7.5607533E0,6.5328907E-3,1.6883133E-2,3.4084987E-2],"split_indices":[171,264,264,264,0,196,268,264,0,0,215,0,186,0,0,227,0,0,0,0,186,242,258,0,0,200,0,0,0],"split_type":[0,0,0,0,0,0,0,0,0,0,0,0,0,0,0,0,0,0,0,0,0,0,0,0,0,0,0,0,0],"sum_hessian":[2.0697748E2,6.3983616E1,1.4299387E2,5.6929276E1,7.0543413E0,8.486418E1,5.812968E1,3.8209843E1,1.8719433E1,1.8038534E1,6.6825645E1,8.179856E0,4.994982E1,3.1858507E1,6.3513355E0,5.7314056E1,9.511594E0,6.32955E0,4.3620274E1,1.1877855E1,4.54362E1,1.5958692E1,2.9477509E1,8.320937E0,7.6377544E0,1.9469057E1,1.0008451E1,6.118088E0,1.3350969E1],"tree_param":{"num_deleted":"0","num_feature":"384","num_nodes":"29","size_leaf_vector":"1"}},{"base_weights":[9.250721E-2,-3.8404444E-1,1.0125717E0,-4.864193E-1,3.215261E-2,-1.5692195E-2,1.2283001E0,-5.9863055E-1,3.0783068E-2,-3.5417988E-3,1.3810695E0,-7.521293E-1,6.367365E-1,6.623284E-3,1.5211804E0,-3.949936E-1,-1.3328588E0,2.7510896E-2,-1.221569E-2,2.7965376E-2,1.7476706E-2,-8.340619E-1,5.993431E-1,-2.6997214E-2,1.9270744E-3,1.4760469E-2,-1.0920187E0,2.8273713E-2,-2.5174677E-1,-2.4836836E-2,1.0376918E-2,-2.7300587E-2,1.8589482E-2],"categories":[],"categories_nodes":[],"categories_segments":[],"categories_sizes":[],"default_left":[0,0,0,0,0,0,0,0,0,0,0,0,0,0,0,0,0,0,0,0,0,0,0,0,0,0,0,0,0,0,0,0,0],"id":17,"left_children":[1,3,5,7,-1,-1,9,11,-1,-1,13,15,17,-1,19,21,23,-1,-1,-1,-1,25,27,-1,-1,-1,29,-1,31,-1,-1,-1,-1],"loss_changes":[9.5006836E1,3.29794E1,3.0735886E1,3.4927776E1,0E0,0E0,1.4580078E1,2.467978E1,0E0,0E0,8.370087E0,2.4000687E1,1.8739122E1,0E0,2.8519974E0,3.1298931E1,1.5300476E1,0E0,0E0,0E0,0E0,2.1734158E1,1.9589615E1,0E0,0E0,0E0,2.6005558E1,0E0,2.1650969E1,0E0,0E0,0E0,0E0],"parents":[2147483647,0,0,1,1,2,2,3,3,6,6,7,7,10,10,11,11,12,12,14,14,15,15,16,16,21,21,22,22,26,26,28,28],"right_children":[2,4,6,8,-1,-1,10,12,-1,-1,14,16,18,-1,20,22,24,-1,-1,-1,-1,26,28,-1,-1,-1,30,-1,32,-1,-1,-1,-1],"split_conditions":[6.0760202E0,1.4507586E1,1.0077802E1,4.859886E0,3.215261E-2,-1.5692195E-2,3.937636E-1,3E0,3.0783068E-2,-3.5417988E-3,1.2356394E1,1.34E2,1.1418272E1,6.623284E-3,2.7914011E1,4.1238694E0,4.139468E0,2.7510896E-2,-1.221569E-2,2.7965376E-2,1.7476706E-2,2.2709262E0,2.9507431E1,-2.6997214E-2,1.9270744E-3,1.4760469E-2,5.8172207E0,2.8273713E-2,5.2997303E0,-2.4836836E-2,1.0376918E-2,-2.7300587E-2,1.8589482E-2],"split_indices":[248,168,239,207,0,0,171,315,0,0,255,176,251,0,256,204,269,0,0,0,0,212,242,0,0,0,216,0,262,0,0,0,0],"split_type":[0,0,0,0,0,0,0,0,0,0,0,0,0,0,0,0,0,0,0,0,0,0,0,0,0,0,0,0,0,0,0,0,0],"sum_hessian":[2.166763E2,1.4273862E2,7.393767E1,1.365483E2,6.1903205E0,7.4420743E0,6.64956E1,1.3014531E2,6.402993E0,6.3960996E0,6.00995E1,1.15765274E2,1.4380034E1,7.4217424E0,5.2677753E1,7.168788E1,4.4077396E1,8.379882E0,6.0001526E0,4.334462E1,9.333136E0,4.9732674E1,2.1955204E1,3.780097E1,6.276429E0,6.569463E0,4.316321E1,9.842182E0,1.2113023E1,3.5696053E1,7.4671564E0,6.0492716E0,6.063751E0],"tree_param":{"num_deleted":"0","num_feature":"384","num_nodes":"33","size_leaf_vector":"1"}},{"base_weights":[8.3740436E-2,-3.5107553E-1,9.583718E-1,-2.1207242E-1,-2.6390137E-2,-5.8953897E-3,1.1346211E0,-1.1146433E0,-6.925551E-3,-2.1652924E-3,1.2795475E0,2.7406216E-3,-2.68268E-2,1.8746823E-1,-2.6584147E-2,6.6181296E-3,1.4043131E0,6.2081456E-1,-3.8824204E-1,1.0631489E-2,2.6947388E-2,1.0592101E0,2.89317E-2,-1.2995702E0,3.517589E-1,-1.3161901E-3,1.4145173E0,1.0333948E0,-2.8519237E-2,-2.7436947E-2,-1.2548769E-2,-1.5228056E-2,1.0616069E0,2.9079912E-2,1.2784338E-2,8.039331E-3,2.9232208E-2,3.139913E-2,2.1084694E-3],"categories":[],"categories_nodes":[],"categories_segments":[],"categories_sizes":[],"default_left":[0,0,0,0,0,0,0,0,0,0,0,0,0,0,0,0,0,0,0,0,0,0,0,0,0,0,0,0,0,0,0,0,0,0,0,0,0,0,0],"id":18,"left_children":[1,3,5,7,-1,-1,9,11,13,-1,15,-1,-1,17,-1,-1,19,21,23,-1,-1,25,27,29,31,-1,33,35,-1,-1,-1,-1,37,-1,-1,-1,-1,-1,-1],"loss_changes":[8.112873E1,2.3489649E1,1.6258087E1,2.3609829E1,0E0,0E0,1.1406807E1,1.3500614E1,3.1158499E1,0E0,6.2328644E0,0E0,0E0,2.3025467E1,0E0,0E0,6.376274E0,1.3658422E1,2.6729933E1,0E0,0E0,1.221447E1,3.805535E1,3.0066433E0,1.923306E1,0E0,4.304577E0,5.309635E0,0E0,0E0,0E0,0E0,1.0012377E1,0E0,0E0,0E0,0E0,0E0,0E0],"parents":[2147483647,0,0,1,1,2,2,3,3,6,6,7,7,8,8,10,10,13,13,16,16,17,17,18,18,21,21,22,22,23,23,24,24,26,26,27,27,32,32],"right_children":[2,4,6,8,-1,-1,10,12,14,-1,16,-1,-1,18,-1,-1,20,22,24,-1,-1,26,28,30,32,-1,34,36,-1,-1,-1,-1,38,-1,-1,-1,-1,-1,-1],"split_conditions":[6.0760202E0,2.0534163E0,1.0077802E1,1.19373E1,-2.6390137E-2,-5.8953897E-3,1.420759E0,1E0,3.856271E1,-2.1652924E-3,2.2478881E-1,2.7406216E-3,-2.68268E-2,2.5142858E0,-2.6584147E-2,6.6181296E-3,2.0927854E0,1.2132734E1,1E0,1.0631489E-2,2.6947388E-2,2.2571833E0,5.937861E0,1E0,6.0436335E0,-1.3161901E-3,-3.736082E-1,1.5398805E0,-2.8519237E-2,-2.7436947E-2,-1.2548769E-2,-1.5228056E-2,2.2584035E0,2.9079912E-2,1.2784338E-2,8.039331E-3,2.9232208E-2,3.139913E-2,2.1084694E-3],"split_indices":[248,271,239,197,0,0,194,145,264,0,181,0,0,184,0,0,187,259,329,0,0,189,191,86,191,0,179,271,0,0,0,0,189,0,0,0,0,0,0],"split_type":[0,0,0,0,0,0,0,0,0,0,0,0,0,0,0,0,0,0,0,0,0,0,0,0,0,0,0,0,0,0,0,0,0,0,0,0,0,0,0],"sum_hessian":[2.1331775E2,1.4247942E2,7.083833E1,1.2754183E2,1.4937579E1,8.443261E0,6.239507E1,2.3615719E1,1.0392612E2,6.429185E0,5.596588E1,6.1435738E0,1.7472145E1,9.22881E1,1.163801E1,6.8594246E0,4.9106457E1,5.2659447E1,3.962866E1,8.566587E0,4.053987E1,3.024718E1,2.2412266E1,1.7761658E1,2.1867E1,7.203522E0,2.304366E1,1.40609E1,8.351365E0,1.1633355E1,6.128303E0,7.9622E0,1.39048E1,1.6247791E1,6.7958674E0,7.631253E0,6.4296465E0,7.645775E0,6.259025E0],"tree_param":{"num_deleted":"0","num_feature":"384","num_nodes":"39","size_leaf_vector":"1"}},{"base_weights":[-1.8479101E-2,-5.5456257E-1,1.0657529E0,1.3161892E-1,-8.058952E-1,-5.4930667E-3,1.2543875E0,5.489629E-1,-2.6259463E-2,-1.1443697E0,3.3555664E-2,1.4735509E0,6.775557E-1,-1.2671613E-2,9.0006816E-1,-6.354466E-1,-1.4569108E0,-8.937946E-1,1.0634809E0,1.5020286E-2,2.7509019E-2,2.3542123E-2,-2.480009E-4,2.8749958E-1,3.1063389E-2,-2.668954E-2,1.3754283E-1,-2.7257381E-2,-1.3148082E-2,2.6890878E-3,-2.7670564E-2,3.1554703E-2,7.502E-3,-1.4606804E-2,2.2704024E-2,1.9614393E-2,-1.4934638E-2],"categories":[],"categories_nodes":[],"categories_segments":[],"categories_sizes":[],"default_left":[0,0,0,0,0,0,0,0,0,0,0,0,0,0,0,0,0,0,0,0,0,0,0,0,0,0,0,0,0,0,0,0,0,0,0,0,0],"id":19,"left_children":[1,3,5,7,9,-1,11,13,-1,15,17,19,21,-1,23,25,27,29,31,-1,-1,-1,-1,33,-1,-1,35,-1,-1,-1,-1,-1,-1,-1,-1,-1,-1],"loss_changes":[1.2025139E2,2.38797E1,1.7897667E1,2.572862E1,2.8798523E1,0E0,7.6056366E0,1.3407116E1,0E0,1.1476608E1,2.7808117E1,3.3625946E0,7.9779596E0,0E0,1.2979237E1,1.9543789E1,4.042473E0,1.1566671E1,6.685917E0,0E0,0E0,0E0,0E0,1.6426218E1,0E0,0E0,1.5124643E1,0E0,0E0,0E0,0E0,0E0,0E0,0E0,0E0,0E0,0E0],"parents":[2147483647,0,0,1,1,2,2,3,3,4,4,6,6,7,7,9,9,10,10,11,11,12,12,14,14,15,15,16,16,17,17,18,18,23,23,26,26],"right_children":[2,4,6,8,10,-1,12,14,-1,16,18,20,22,-1,24,26,28,30,32,-1,-1,-1,-1,34,-1,-1,36,-1,-1,-1,-1,-1,-1,-1,-1,-1,-1],"split_conditions":[1.3401775E1,-9.546052E-1,2.2799604E1,9.080713E0,3.1896453E0,-5.4930667E-3,2.998582E0,2.2676704E0,-2.6259463E-2,4.9839787E0,3.51892E0,3.0298E0,2.0601534E1,-1.2671613E-2,7.4733677E0,3.675266E1,3.9020668E1,-3.4524435E-1,5.15311E0,1.5020286E-2,2.7509019E-2,2.3542123E-2,-2.480009E-4,-1.0182801E0,3.1063389E-2,-2.668954E-2,6.6037836E0,-2.7257381E-2,-1.3148082E-2,2.6890878E-3,-2.7670564E-2,3.1554703E-2,7.502E-3,-1.4606804E-2,2.2704024E-2,1.9614393E-2,-1.4934638E-2],"split_indices":[221,170,229,200,269,0,193,189,0,231,297,297,260,0,211,225,226,170,215,0,0,0,0,170,0,0,211,0,0,0,0,0,0,0,0,0,0],"split_type":[0,0,0,0,0,0,0,0,0,0,0,0,0,0,0,0,0,0,0,0,0,0,0,0,0,0,0,0,0,0,0,0,0,0,0,0,0],"sum_hessian":[2.068924E2,1.3844499E2,6.84474E1,3.7109413E1,1.0133559E2,8.19749E0,6.0249916E1,2.9662231E1,7.4471807E0,7.222136E1,2.9114227E1,4.365455E1,1.6595366E1,6.3535423E0,2.330869E1,2.7484337E1,4.473702E1,1.5317381E1,1.3796846E1,7.759347E0,3.5895203E1,8.288909E0,8.306457E0,1.3933143E1,9.375547E0,1.2555047E1,1.4929289E1,3.759107E1,7.145952E0,6.217945E0,9.099436E0,6.163128E0,7.6337185E0,6.6333866E0,7.299756E0,7.476205E0,7.4530845E0],"tree_param":{"num_deleted":"0","num_feature":"384","num_nodes":"37","size_leaf_vector":"1"}},{"base_weights":[3.2664586E-2,-3.645255E-1,8.606245E-1,6.88253E-2,-7.0457214E-1,-7.14302E-3,1.0359176E0,8.1807095E-1,-5.28092E-1,-8.950506E-1,2.0460973E-2,1.3302203E0,2.2128399E-1,9.477356E-2,2.8730782E-2,4.5445928E-1,-1.3001976E0,-1.9644481E-1,-1.1453742E0,1.5348144E0,8.481447E-1,-1.7413713E-2,2.0377021E-2,1.1574959E-2,-1.2765023E-2,-1.4411528E-2,2.3724308E-2,-2.689131E-2,-1.1919293E-2,-2.6693556E-2,1.2971963E-2,1.8553995E-3,-1.4252719E0,2.9340573E-2,1.642712E-2,2.6658095E-2,4.5309574E-3,-1.4181008E-2,-2.6581217E-2],"categories":[],"categories_nodes":[],"categories_segments":[],"categories_sizes":[],"default_left":[0,0,0,0,0,0,0,0,0,0,0,0,0,0,0,0,0,0,0,0,0,0,0,0,0,0,0,0,0,0,0,0,0,0,0,0,0,0,0],"id":20,"left_children":[1,3,5,7,9,-1,11,13,15,17,-1,19,21,23,-1,25,27,29,31,33,35,-1,-1,-1,-1,-1,-1,-1,-1,-1,-1,-1,37,-1,-1,-1,-1,-1,-1],"loss_changes":[7.017223E1,2.125174E1,1.5486603E1,2.8353191E1,2.919065E1,0E0,1.4576332E1,1.7394659E1,2.676849E1,1.2834377E1,0E0,4.3946457E0,1.9279394E1,7.4066997E0,0E0,1.8638855E1,3.1787071E0,2.507511E1,1.8971489E1,3.1506424E0,5.4769278E0,0E0,0E0,0E0,0E0,0E0,0E0,0E0,0E0,0E0,0E0,0E0,3.255188E0,0E0,0E0,0E0,0E0,0E0,0E0],"parents":[2147483647,0,0,1,1,2,2,3,3,4,4,6,6,7,7,8,8,9,9,11,11,12,12,13,13,15,15,16,16,17,17,18,18,19,19,20,20,32,32],"right_children":[2,4,6,8,10,-1,12,14,16,18,-1,20,22,24,-1,26,28,30,32,34,36,-1,-1,-1,-1,-1,-1,-1,-1,-1,-1,-1,38,-1,-1,-1,-1,-1,-1],"split_conditions":[1.3139892E1,-2.97E0,3.04246E2,1.3089513E1,3.549571E1,-7.14302E-3,1.6690355E1,1.4617749E-1,2.5269264E-1,-4.945776E-1,2.0460973E-2,1E0,1E0,9.369555E0,2.8730782E-2,2.4159155E1,4.9456894E-1,8.030754E0,1.1986E0,7.595866E0,6.146844E0,-1.7413713E-2,2.0377021E-2,1.1574959E-2,-1.2765023E-2,-1.4411528E-2,2.3724308E-2,-2.689131E-2,-1.1919293E-2,-2.6693556E-2,1.2971963E-2,1.8553995E-3,1.5535471E-2,2.9340573E-2,1.642712E-2,2.6658095E-2,4.5309574E-3,-1.4181008E-2,-2.6581217E-2],"split_indices":[221,208,174,234,185,0,245,169,178,179,0,83,363,265,0,234,180,211,297,265,211,0,0,0,0,0,0,0,0,0,0,0,169,0,0,0,0,0,0],"split_type":[0,0,0,0,0,0,0,0,0,0,0,0,0,0,0,0,0,0,0,0,0,0,0,0,0,0,0,0,0,0,0,0,0,0,0,0,0,0,0],"sum_hessian":[2.1337392E2,1.4419455E2,6.9179375E1,6.3392693E1,8.080186E1,8.347597E0,6.083178E1,2.8113483E1,3.527921E1,7.3430275E1,7.3715754E0,4.468282E1,1.614896E1,1.5240195E1,1.2873287E1,1.552107E1,1.975814E1,1.9376085E1,5.405419E1,3.1361847E1,1.3320972E1,7.082298E0,9.066662E0,9.014824E0,6.2253714E0,6.4787416E0,9.042328E0,1.3714125E1,6.044016E0,7.9858594E0,1.1390226E1,9.86355E0,4.4190643E1,2.4074343E1,7.287504E0,6.0318727E0,7.2890997E0,7.557219E0,3.6633423E1],"tree_param":{"num_deleted":"0","num_feature":"384","num_nodes":"39","size_leaf_vector":"1"}},{"base_weights":[8.165353E-2,-4.4643477E-1,7.9363173E-1,-1.0709474E0,-7.05745E-2,1.1697551E0,1.6407089E-1,-2.6066791E-2,-5.531131E-1,-1.2230645E0,2.4299952E-1,-2.5516935E-3,1.3452942E0,5.5776215E-1,-1.84096E-2,-2.6290728E-2,7.5454656E-3,-2.678928E-2,-1.0880928E-2,1.2975451E0,-3.6334E-2,7.135814E-1,2.6613874E-2,-1.1379154E-3,2.3604313E-2,3.1139415E-2,1.3918611E-2,2.5160277E-1,-2.7025817E-2,2.8049096E-2,-2.8650302E-3,-1.6044224E-2,1.5660264E-2,-1.8520271E-2,7.6881045E-1,1.3254086E0,9.6769236E-2,1.1622563E-2,3.1017592E-2,-1.4222504E-2,2.0533903E-2],"categories":[],"categories_nodes":[],"categories_segments":[],"categories_sizes":[],"default_left":[0,0,0,0,0,0,0,0,0,0,0,0,0,0,0,0,0,0,0,0,0,0,0,0,0,0,0,0,0,0,0,0,0,0,0,0,0,0,0,0,0],"id":21,"left_children":[1,3,5,7,9,11,13,-1,15,17,19,-1,21,23,-1,-1,-1,-1,-1,25,27,29,-1,31,-1,-1,-1,33,-1,-1,-1,-1,-1,-1,35,37,39,-1,-1,-1,-1],"loss_changes":[8.0877075E1,2.8982046E1,2.1684715E1,1.0747139E1,2.7868607E1,1.3276772E1,1.6680235E1,0E0,2.0913628E1,3.2706375E0,1.785933E1,0E0,6.55188E0,1.1884049E1,0E0,0E0,0E0,0E0,0E0,3.1785812E0,2.1227804E1,1.007542E1,0E0,1.3165862E1,0E0,0E0,0E0,2.777107E1,0E0,0E0,0E0,0E0,0E0,0E0,1.0863478E1,4.950266E0,1.3403624E1,0E0,0E0,0E0,0E0],"parents":[2147483647,0,0,1,1,2,2,3,3,4,4,5,5,6,6,8,8,9,9,10,10,12,12,13,13,19,19,20,20,21,21,23,23,27,27,34,34,35,35,36,36],"right_children":[2,4,6,8,10,12,14,-1,16,18,20,-1,22,24,-1,-1,-1,-1,-1,26,28,30,-1,32,-1,-1,-1,34,-1,-1,-1,-1,-1,-1,36,38,40,-1,-1,-1,-1],"split_conditions":[3E0,7.543E1,1.0802663E1,1E0,1.3895044E-1,3.19763E2,1.9519035E1,-2.6066791E-2,5.817863E0,3.033469E1,-1.4862185E0,-2.5516935E-3,7.895E1,2.3199633E1,-1.84096E-2,-2.6290728E-2,7.5454656E-3,-2.678928E-2,-1.0880928E-2,1.1572557E1,2.2617786E1,5.15311E0,2.6613874E-2,8.415632E-1,2.3604313E-2,3.1139415E-2,1.3918611E-2,2.1172345E0,-2.7025817E-2,2.8049096E-2,-2.8650302E-3,-1.6044224E-2,1.5660264E-2,-1.8520271E-2,2.5829758E1,2.8322E0,2.9655933E1,1.1622563E-2,3.1017592E-2,-1.4222504E-2,2.0533903E-2],"split_indices":[282,250,254,132,269,173,231,0,239,258,267,0,250,245,0,0,0,0,0,234,210,215,0,267,0,0,0,270,0,0,0,0,0,0,264,297,245,0,0,0,0],"split_type":[0,0,0,0,0,0,0,0,0,0,0,0,0,0,0,0,0,0,0,0,0,0,0,0,0,0,0,0,0,0,0,0,0,0,0,0,0,0,0,0,0],"sum_hessian":[2.1510086E2,1.2349499E2,9.160587E1,4.6394325E1,7.710066E1,5.734032E1,3.4265553E1,2.4874466E1,2.1519861E1,1.6494387E1,6.0606277E1,6.733971E0,5.060635E1,2.5994505E1,8.271047E0,1.0839299E1,1.0680563E1,1.0477938E1,6.0164485E0,1.2695616E1,4.791066E1,1.2419531E1,3.818682E1,1.5435513E1,1.0558992E1,6.151879E0,6.543737E0,4.0353897E1,7.5567656E0,6.074191E0,6.3453393E0,7.6365886E0,7.798924E0,1.1292047E1,2.906185E1,1.5891996E1,1.3169852E1,6.7801223E0,9.111875E0,7.1488013E0,6.021051E0],"tree_param":{"num_deleted":"0","num_feature":"384","num_nodes":"41","size_leaf_vector":"1"}},{"base_weights":[2.1956561E-2,-4.4748038E-1,9.780733E-1,-7.1034455E-1,2.256197E-1,7.452331E-2,1.2331047E0,-1.2239007E0,-1.6457605E-1,-7.9776204E-1,7.793714E-1,-1.7535906E-2,1.8009301E-2,1.4878424E0,6.529956E-1,-3.368203E-1,-2.6374828E-2,-2.5685841E-2,2.1189854E-1,2.0575072E-3,-2.6378756E-2,2.5708495E-2,3.128123E-1,2.8661322E-2,1.5947497E-2,-1.880613E-3,1.949635E-2,-1.35885235E-2,3.2259005E-3,7.37427E-1,-7.57782E-1,2.0561667E-2,-1.599517E-2,2.5872078E-2,2.1391062E-1,-2.6966013E-2,3.4685815E-3,-1.3654456E-2,2.0127514E-2],"categories":[],"categories_nodes":[],"categories_segments":[],"categories_sizes":[],"default_left":[0,0,0,0,0,0,0,0,0,0,0,0,0,0,0,0,0,0,0,0,0,0,0,0,0,0,0,0,0,0,0,0,0,0,0,0,0,0,0],"id":22,"left_children":[1,3,5,7,9,11,13,15,17,19,21,-1,-1,23,25,27,-1,-1,29,-1,-1,-1,31,-1,-1,-1,-1,-1,-1,33,35,-1,-1,-1,37,-1,-1,-1,-1],"loss_changes":[9.422429E1,2.4913416E1,1.5923553E1,2.8373222E1,2.2404894E1,1.6265848E1,7.955429E0,1.4463478E1,2.4624685E1,9.420588E0,8.5914755E0,0E0,0E0,3.7960205E0,6.0653934E0,3.2501788E0,0E0,0E0,1.9503345E1,0E0,0E0,0E0,1.7146358E1,0E0,0E0,0E0,0E0,0E0,0E0,9.997383E0,1.0506329E1,0E0,0E0,0E0,1.4307929E1,0E0,0E0,0E0,0E0],"parents":[2147483647,0,0,1,1,2,2,3,3,4,4,5,5,6,6,7,7,8,8,9,9,10,10,13,13,14,14,15,15,18,18,22,22,29,29,30,30,34,34],"right_children":[2,4,6,8,10,12,14,16,18,20,22,-1,-1,24,26,28,-1,-1,30,-1,-1,-1,32,-1,-1,-1,-1,-1,-1,34,36,-1,-1,-1,38,-1,-1,-1,-1],"split_conditions":[1.3139892E1,1E0,2.3354227E1,1.0131122E1,3.0809242E-2,5.4546127E0,2.9935093E0,5.559267E0,3.18764E2,2.4503014E1,5.3050655E1,-1.7535906E-2,1.8009301E-2,7.595866E0,3.6896245E0,1.7766241E1,-2.6374828E-2,-2.5685841E-2,4.3800327E1,2.0575072E-3,-2.6378756E-2,2.5708495E-2,2.733622E0,2.8661322E-2,1.5947497E-2,-1.880613E-3,1.949635E-2,-1.35885235E-2,3.2259005E-3,3.3248616E5,2.4949852E1,2.0561667E-2,-1.599517E-2,2.5872078E-2,1.6149536E1,-2.6966013E-2,3.4685815E-3,-1.3654456E-2,2.0127514E-2],"split_indices":[221,105,229,186,269,265,193,238,173,242,235,0,0,265,269,254,0,0,225,0,0,0,193,0,0,0,0,0,0,209,245,0,0,0,227,0,0,0,0],"split_type":[0,0,0,0,0,0,0,0,0,0,0,0,0,0,0,0,0,0,0,0,0,0,0,0,0,0,0,0,0,0,0,0,0,0,0,0,0,0,0],"sum_hessian":[2.0992378E2,1.4079199E2,6.913179E1,1.0125628E2,3.953571E1,1.5222037E1,5.3909756E1,5.216272E1,4.9093555E1,1.3878206E1,2.5657505E1,7.1621313E0,8.059906E0,3.745392E1,1.6455835E1,1.3602178E1,3.8560543E1,1.08213005E1,3.8272255E1,6.18846E0,7.6897464E0,1.0097051E1,1.5560453E1,2.8241554E1,9.212363E0,6.3764443E0,1.00793915E1,7.291459E0,6.3107185E0,2.4823984E1,1.3448272E1,9.096084E0,6.4643703E0,1.004307E1,1.4780914E1,7.2826533E0,6.1656184E0,7.197549E0,7.583365E0],"tree_param":{"num_deleted":"0","num_feature":"384","num_nodes":"39","size_leaf_vector":"1"}},{"base_weights":[2.9694961E-2,-3.4287164E-1,8.6364645E-1,-5.019033E-1,8.5820085E-1,-7.796375E-3,1.0748526E0,-6.03727E-1,2.1687496E-2,2.8713403E-2,2.2794695E-3,1.2736679E0,4.470171E-1,-7.1015555E-1,1.2329202E-2,8.0814135E-1,2.7317733E-2,1.9585371E-2,-5.1525896E-3,4.4001928E-1,-8.603399E-1,2.3558762E-2,-2.8009124E-3,-1.453663E-3,1.8170292E-2,-9.6722966E-1,8.585913E-3,-1.7249939E-1,-1.2248161E0,-1.4827955E-2,2.4889616E-2,-2.4343966E-2,-1.0022141E-2],"categories":[],"categories_nodes":[],"categories_segments":[],"categories_sizes":[],"default_left":[0,0,0,0,0,0,0,0,0,0,0,0,0,0,0,0,0,0,0,0,0,0,0,0,0,0,0,0,0,0,0,0,0],"id":23,"left_children":[1,3,5,7,9,-1,11,13,-1,-1,-1,15,17,19,-1,21,-1,-1,-1,23,25,-1,-1,-1,-1,27,-1,29,31,-1,-1,-1,-1],"loss_changes":[6.6213974E1,2.8132404E1,1.8320953E1,2.3379921E1,1.0166888E1,0E0,7.0713654E0,1.7304585E1,0E0,0E0,0E0,6.3630676E0,7.083068E0,1.9664162E1,0E0,9.594179E0,0E0,0E0,0E0,4.2711363E0,1.4645012E1,0E0,0E0,0E0,0E0,1.9103188E1,0E0,2.5640087E1,8.733978E0,0E0,0E0,0E0,0E0],"parents":[2147483647,0,0,1,1,2,2,3,3,4,4,6,6,7,7,11,11,12,12,13,13,15,15,19,19,20,20,25,25,27,27,28,28],"right_children":[2,4,6,8,10,-1,12,14,-1,-1,-1,16,18,20,-1,22,-1,-1,-1,24,26,-1,-1,-1,-1,28,-1,30,32,-1,-1,-1,-1],"split_conditions":[6.0760202E0,1.1855519E1,2.2799604E1,3.549826E1,1.8329578E1,-7.796375E-3,2.9935093E0,2.4212976E1,2.1687496E-2,2.8713403E-2,2.2794695E-3,1.6517405E1,2.2419893E1,9.69697E-1,1.2329202E-2,9.62963E-1,2.7317733E-2,1.9585371E-2,-5.1525896E-3,3.033469E1,8.236971E0,2.3558762E-2,-2.8009124E-3,-1.453663E-3,1.8170292E-2,1.6466469E1,8.585913E-3,4.272552E1,6.519304E1,-1.4827955E-2,2.4889616E-2,-2.4343966E-2,-1.0022141E-2],"split_indices":[248,217,229,185,258,0,193,251,0,0,0,185,242,182,0,182,0,0,0,259,266,0,0,0,0,185,0,258,235,0,0,0,0],"split_type":[0,0,0,0,0,0,0,0,0,0,0,0,0,0,0,0,0,0,0,0,0,0,0,0,0,0,0,0,0,0,0,0,0],"sum_hessian":[2.1310172E2,1.4729277E2,6.580895E1,1.3007425E2,1.721852E1,9.086473E0,5.672248E1,1.2298418E2,7.0900726E0,8.106427E0,9.112091E0,4.3074005E1,1.3648476E1,1.1382501E2,9.1591625E0,1.7487011E1,2.5586994E1,7.079365E0,6.569111E0,1.3142174E1,1.0068284E2,1.1063168E1,6.4238424E0,7.1064334E0,6.03574E0,9.335271E1,7.3301315E0,2.2855854E1,7.049686E1,1.6028988E1,6.8268657E0,5.4139366E1,1.6357489E1],"tree_param":{"num_deleted":"0","num_feature":"384","num_nodes":"33","size_leaf_vector":"1"}},{"base_weights":[1.1322506E-2,-4.3568063E-1,9.138132E-1,-5.37599E-1,3.0381756E-2,-1.3966227E-2,1.0840334E0,-9.472147E-1,-6.7850225E-2,-4.451299E-3,1.2455473E0,-1.293096E0,-2.0169516E-1,-2.5750238E-2,3.1838885E-1,2.4736866E-2,7.691167E-3,-2.594163E-2,-7.234179E-3,-2.625721E-2,1.9937752E-2,9.091771E-1,-8.913015E-1,1.0091938E-3,1.2421253E0,-2.6622172E-2,2.9848767E-3,1.081867E-2,2.8061368E-2],"categories":[],"categories_nodes":[],"categories_segments":[],"categories_sizes":[],"default_left":[0,0,0,0,0,0,0,0,0,0,0,0,0,0,0,0,0,0,0,0,0,0,0,0,0,0,0,0,0],"id":24,"left_children":[1,3,5,7,-1,-1,9,11,13,-1,15,17,19,-1,21,-1,-1,-1,-1,-1,-1,23,25,-1,27,-1,-1,-1,-1],"loss_changes":[8.4472115E1,3.1473375E1,2.0397614E1,2.5748524E1,0E0,0E0,1.3705284E1,1.842736E1,3.450309E1,0E0,8.786987E0,9.283043E0,4.103558E1,0E0,3.509555E1,0E0,0E0,0E0,0E0,0E0,0E0,9.335653E0,1.1329926E1,0E0,5.685852E0,0E0,0E0,0E0,0E0],"parents":[2147483647,0,0,1,1,2,2,3,3,6,6,7,7,8,8,10,10,11,11,12,12,14,14,21,21,22,22,24,24],"right_children":[2,4,6,8,-1,-1,10,12,14,-1,16,18,20,-1,22,-1,-1,-1,-1,-1,-1,24,26,-1,28,-1,-1,-1,-1],"split_conditions":[6.0760202E0,1.4507586E1,1.1505249E1,1.0131122E1,3.0381756E-2,-1.3966227E-2,1.0073232E1,1E0,1.24E2,-4.451299E-3,1.017327E1,3E0,2.8937098E-1,-2.5750238E-2,1.1566732E1,2.4736866E-2,7.691167E-3,-2.594163E-2,-7.234179E-3,-2.625721E-2,1.9937752E-2,1.4790515E1,5.151791E0,1.0091938E-3,1.1204087E1,-2.6622172E-2,2.9848767E-3,1.081867E-2,2.8061368E-2],"split_indices":[248,167,255,186,0,0,186,101,176,0,186,286,269,0,215,0,0,0,0,0,0,238,205,0,256,0,0,0,0],"split_type":[0,0,0,0,0,0,0,0,0,0,0,0,0,0,0,0,0,0,0,0,0,0,0,0,0,0,0,0,0],"sum_hessian":[2.0938567E2,1.4002547E2,6.93602E1,1.3384372E2,6.181743E0,6.218562E0,6.3141636E1,7.149222E1,6.235151E1,6.773295E0,5.6368343E1,4.8830486E1,2.2661732E1,1.3244568E1,4.910694E1,4.525549E1,1.1112852E1,3.9043697E1,9.786791E0,1.1480959E1,1.1180773E1,3.2996437E1,1.6110502E1,9.288477E0,2.370796E1,9.951399E0,6.159104E0,9.27541E0,1.4432549E1],"tree_param":{"num_deleted":"0","num_feature":"384","num_nodes":"29","size_leaf_vector":"1"}},{"base_weights":[6.1315592E-2,1.0628481E0,-2.554153E-1,-6.164481E-4,1.2863355E0,7.75254E-1,-4.2247674E-1,2.7526828E-2,1.0555382E0,2.641128E-2,-2.4428829E-3,-2.1831079E-1,-1.1412096E0,6.0551846E-3,2.3147158E-2,-1.0900717E0,2.893182E-2,-2.5460131E-2,-2.0717853E-3,-2.6170392E-2,8.2379085E-4,-2.7137788E-2,2.0270689E-1,1.0711098E0,-5.8395658E-2,3.2665115E-2,7.831957E-3,-7.7410406E-1,5.6715053E-1,6.244684E-3,-2.1630475E-2,-1.5985563E-2,1.860272E-2],"categories":[],"categories_nodes":[],"categories_segments":[],"categories_sizes":[],"default_left":[0,0,0,0,0,0,0,0,0,0,0,0,0,0,0,0,0,0,0,0,0,0,0,0,0,0,0,0,0,0,0,0,0],"id":25,"left_children":[1,3,5,-1,7,9,11,-1,13,-1,-1,15,17,-1,-1,19,21,-1,-1,-1,-1,-1,23,25,27,-1,-1,29,31,-1,-1,-1,-1],"loss_changes":[6.680604E1,1.2431904E1,2.7545637E1,0E0,3.067253E0,1.5638826E1,2.0195698E1,0E0,5.008398E0,0E0,0E0,2.3116367E1,1.0625175E1,0E0,0E0,1.1730358E1,2.3363512E1,0E0,0E0,0E0,0E0,0E0,1.7100481E1,8.905727E0,2.5951162E1,0E0,0E0,1.4961805E1,2.3946075E1,0E0,0E0,0E0,0E0],"parents":[2147483647,0,0,1,1,2,2,4,4,5,5,6,6,8,8,11,11,12,12,15,15,16,16,22,22,23,23,24,24,27,27,28,28],"right_children":[2,4,6,-1,8,10,12,-1,14,-1,-1,16,18,-1,-1,20,22,-1,-1,-1,-1,-1,24,26,28,-1,-1,30,32,-1,-1,-1,-1],"split_conditions":[4.722095E0,2.2358515E0,4.9787518E-1,-6.164481E-4,1.0685715E1,2E0,1E0,2.7526828E-2,3.52691E2,2.641128E-2,-2.4428829E-3,1.3503811E-1,2.1695652E1,6.0551846E-3,2.3147158E-2,1E0,1.1900653E1,-2.5460131E-2,-2.0717853E-3,-2.6170392E-2,8.2379085E-4,-2.7137788E-2,-8.912397E-1,1.240878E1,-2.3310204E0,3.2665115E-2,7.831957E-3,-3.12E0,2.3394904E0,6.244684E-3,-2.1630475E-2,-1.5985563E-2,1.860272E-2],"split_indices":[220,189,171,0,172,315,116,0,174,0,0,269,172,0,0,329,168,0,0,0,0,0,170,168,190,0,0,208,266,0,0,0,0],"split_type":[0,0,0,0,0,0,0,0,0,0,0,0,0,0,0,0,0,0,0,0,0,0,0,0,0,0,0,0,0,0,0,0,0],"sum_hessian":[2.1058759E2,5.060041E1,1.5998717E2,8.548609E0,4.2051804E1,2.2310911E1,1.3767625E2,1.7692507E1,2.4359297E1,1.2180595E1,1.0130316E1,1.0722488E2,3.0451384E1,7.1745667E0,1.718473E1,2.369575E1,8.352913E1,2.2800999E1,7.650386E0,1.714971E1,6.5460386E0,8.134119E0,7.5395004E1,1.7433207E1,5.79618E1,7.4040074E0,1.00292E1,2.7036572E1,3.0925228E1,8.089953E0,1.8946619E1,7.926645E0,2.2998585E1],"tree_param":{"num_deleted":"0","num_feature":"384","num_nodes":"33","size_leaf_vector":"1"}},{"base_weights":[2.5780099E-2,-7.138506E-1,5.229586E-1,-1.1340545E0,1.376854E-1,-8.0746603E-1,7.8901124E-1,-2.3170586E-1,-2.5764896E-2,-1.6412523E-2,7.906559E-1,1.4438687E-2,-2.5829297E-2,1.2348402E0,1.2490001E-1,-2.6285563E-2,1.3572519E-2,4.998162E-3,2.1118842E-2,1.0253768E0,2.6143495E-2,-2.8731665E-2,4.557529E-1,2.3110582E-2,6.207432E-3,8.8608295E-1,-6.010576E-3,4.153121E-3,2.6244937E-2],"categories":[],"categories_nodes":[],"categories_segments":[],"categories_sizes":[],"default_left":[0,0,0,0,0,0,0,0,0,0,0,0,0,0,0,0,0,0,0,0,0,0,0,0,0,0,0,0,0],"id":26,"left_children":[1,3,5,7,9,11,13,15,-1,-1,17,-1,-1,19,21,-1,-1,-1,-1,23,-1,-1,25,-1,-1,27,-1,-1,-1],"loss_changes":[7.470773E1,2.9226124E1,4.3005966E1,1.8105087E1,1.9270618E1,2.3281965E1,2.9972298E1,2.102572E1,0E0,0E0,3.7037745E0,0E0,0E0,3.6457443E0,2.4202635E1,0E0,0E0,0E0,0E0,7.4721565E0,0E0,0E0,1.1919346E1,0E0,0E0,9.269911E0,0E0,0E0,0E0],"parents":[2147483647,0,0,1,1,2,2,3,3,4,4,5,5,6,6,7,7,10,10,13,13,14,14,19,19,22,22,25,25],"right_children":[2,4,6,8,10,12,14,16,-1,-1,18,-1,-1,20,22,-1,-1,-1,-1,24,-1,-1,26,-1,-1,28,-1,-1,-1],"split_conditions":[1.0129303E1,2.3105025E0,3.20374E2,1E0,2.304136E-1,6.666667E-2,2.3882694E1,2.2559211E0,-2.5764896E-2,-1.6412523E-2,3.42326E2,1.4438687E-2,-2.5829297E-2,2.2222222E-1,4.4002337E0,-2.6285563E-2,1.3572519E-2,4.998162E-3,2.1118842E-2,1E0,2.6143495E-2,-2.8731665E-2,3.621305E1,2.3110582E-2,6.207432E-3,4.21453E2,-6.010576E-3,4.153121E-3,2.6244937E-2],"split_indices":[186,189,173,278,269,272,264,189,0,0,173,0,0,272,205,0,0,0,0,159,0,0,258,0,0,173,0,0,0],"split_type":[0,0,0,0,0,0,0,0,0,0,0,0,0,0,0,0,0,0,0,0,0,0,0,0,0,0,0,0,0],"sum_hessian":[2.031625E2,8.1664055E1,1.2149846E2,5.4684933E1,2.697912E1,2.0244429E1,1.0125403E2,1.5817643E1,3.886729E1,1.0081494E1,1.6897627E1,6.0158024E0,1.4228627E1,6.057869E1,4.0675343E1,6.9666615E0,8.850982E0,7.917796E0,8.979831E0,3.5100502E1,2.547819E1,6.3163505E0,3.435899E1,2.3650137E1,1.1450363E1,2.2403303E1,1.19556875E1,1.1196349E1,1.1206955E1],"tree_param":{"num_deleted":"0","num_feature":"384","num_nodes":"29","size_leaf_vector":"1"}},{"base_weights":[5.3352192E-2,-3.9484194E-1,8.963637E-1,1.5356235E-1,-6.836438E-1,-7.327271E-3,1.0898798E0,4.412992E-1,-2.5687827E-2,-2.4390076E-1,-1.1425576E0,1.2411841E0,4.9701435E-3,-3.9056638E-1,9.0042573E-1,-2.5082141E-2,2.907902E-1,-3.3077348E-3,-2.5930746E-2,2.372542E-2,8.6987406E-1,-2.5249634E-2,7.772084E-3,3.3276416E-2,4.6920717E-1,-1.3500808E-1,1.6254298E-2,2.9317534E-3,2.6232984E-2,-5.2540256E-3,1.9266259E-2,1.9565368E-2,-7.625153E-1,-2.6332662E-2,2.6236897E-4],"categories":[],"categories_nodes":[],"categories_segments":[],"categories_sizes":[],"default_left":[0,0,0,0,0,0,0,0,0,0,0,0,0,0,0,0,0,0,0,0,0,0,0,0,0,0,0,0,0,0,0,0,0,0,0],"id":27,"left_children":[1,3,5,7,9,-1,11,13,-1,15,17,19,-1,21,23,-1,25,-1,-1,-1,27,-1,-1,-1,29,31,-1,-1,-1,-1,-1,-1,33,-1,-1],"loss_changes":[7.6801636E1,2.1020298E1,1.807182E1,2.1728033E1,1.7536095E1,0E0,7.44635E0,1.4889589E1,0E0,2.8908518E1,1.486832E1,2.701088E0,0E0,1.2634737E1,1.1235237E1,0E0,8.623727E0,0E0,0E0,0E0,6.559491E0,0E0,0E0,0E0,8.996395E0,1.4961912E1,0E0,0E0,0E0,0E0,0E0,0E0,7.5331817E0,0E0,0E0],"parents":[2147483647,0,0,1,1,2,2,3,3,4,4,6,6,7,7,9,9,10,10,11,11,13,13,14,14,16,16,20,20,24,24,25,25,32,32],"right_children":[2,4,6,8,10,-1,12,14,-1,16,18,20,-1,22,24,-1,26,-1,-1,-1,28,-1,-1,-1,30,32,-1,-1,-1,-1,-1,-1,34,-1,-1],"split_conditions":[6.0760202E0,4.722095E0,2.2799604E1,4.82219E-1,5.743452E5,-7.327271E-3,3E0,1.2653149E1,-2.5687827E-2,1.371002E5,2.2916667E0,1E0,4.9701435E-3,1.1764706E0,1.0488465E1,-2.5082141E-2,1.2240526E1,-3.3077348E-3,-2.5930746E-2,2.372542E-2,6.103966E0,-2.5249634E-2,7.772084E-3,3.3276416E-2,2.9655933E1,1.303485E2,1.6254298E-2,2.9317534E-3,2.6232984E-2,-5.2540256E-3,1.9266259E-2,1.9565368E-2,2.186602E1,-2.6332662E-2,2.6236897E-4],"split_indices":[248,259,229,180,209,0,286,197,0,209,184,95,0,182,245,0,260,0,0,0,217,0,0,0,245,213,0,0,0,0,0,0,229,0,0],"split_type":[0,0,0,0,0,0,0,0,0,0,0,0,0,0,0,0,0,0,0,0,0,0,0,0,0,0,0,0,0,0,0,0,0,0,0],"sum_hessian":[2.0326181E2,1.3270305E2,7.0558754E1,4.5770985E1,8.693207E1,8.998657E0,6.1560097E1,3.8977886E1,6.7931004E0,4.43991E1,4.2532967E1,5.1766655E1,9.79344E0,1.3858048E1,2.5119837E1,1.3551797E1,3.0847305E1,1.1886902E1,3.0646063E1,3.7499107E1,1.4267549E1,6.077531E0,7.7805176E0,7.3672767E0,1.775256E1,1.870368E1,1.2143626E1,6.924731E0,7.3428183E0,8.114587E0,9.637973E0,6.1664934E0,1.2537186E1,6.296517E0,6.2406693E0],"tree_param":{"num_deleted":"0","num_feature":"384","num_nodes":"35","size_leaf_vector":"1"}},{"base_weights":[7.327533E-2,-3.750137E-1,9.937546E-1,2.059078E-2,-4.8659956E-1,3.67905E-1,1.359808E0,-8.0875255E-2,-8.608342E-1,-9.65353E-3,9.7145534E-1,4.454089E-3,2.6960565E-2,-9.857337E-1,2.9985002E-1,-3.7133014E-1,-1.2092669E0,2.3704654E-2,8.052679E-3,-2.6439844E-2,4.529138E-5,-9.612966E-3,2.1543045E-2,-2.5456436E-2,3.8775715E-1,3.717219E-3,-2.5290694E-2,5.130144E-1,-1.8792145E-2,-9.53781E-3,1.603891E-2,2.5651386E-2,-5.6237422E-2,1.1792742E-2,-1.4502957E-2],"categories":[],"categories_nodes":[],"categories_segments":[],"categories_sizes":[],"default_left":[0,0,0,0,0,0,0,0,0,0,0,0,0,0,0,0,0,0,0,0,0,0,0,0,0,0,0,0,0,0,0,0,0,0,0],"id":28,"left_children":[1,3,5,-1,7,9,11,13,15,-1,17,-1,-1,19,21,23,25,-1,-1,-1,-1,27,-1,-1,29,-1,-1,31,-1,-1,-1,-1,33,-1,-1],"loss_changes":[8.441053E1,2.416694E1,1.5339859E1,0E0,1.9499529E1,1.3888567E1,9.803513E0,2.1239407E1,1.1387711E1,0E0,3.0774164E0,0E0,0E0,1.0019251E1,1.2831913E1,2.3459614E1,1.47105255E1,0E0,0E0,0E0,0E0,1.8586695E1,0E0,0E0,8.518971E0,0E0,0E0,1.236175E1,0E0,0E0,0E0,0E0,8.204074E0,0E0,0E0],"parents":[2147483647,0,0,1,1,2,2,4,4,5,5,6,6,7,7,8,8,10,10,13,13,14,14,15,15,16,16,21,21,24,24,27,27,32,32],"right_children":[2,4,6,-1,8,10,12,14,16,-1,18,-1,-1,20,22,24,26,-1,-1,-1,-1,28,-1,-1,30,-1,-1,32,-1,-1,-1,-1,34,-1,-1],"split_conditions":[1.3401775E1,4.605433E0,1.1250837E1,2.059078E-2,2.3076923E-1,3.7325E0,-8.024414E-1,6.689E1,2.507903E-1,-9.65353E-3,1.6774193E0,4.454089E-3,2.6960565E-2,1.904762E-1,2.1428572E-1,5.9786205E0,5.6008697E0,2.3704654E-2,8.052679E-3,-2.6439844E-2,4.529138E-5,-3.09E0,2.1543045E-2,-2.5456436E-2,2.6385E0,3.717219E-3,-2.5290694E-2,1.1573916E1,-1.8792145E-2,-9.53781E-3,1.603891E-2,2.5651386E-2,6.923737E0,1.1792742E-2,-1.4502957E-2],"split_indices":[221,268,227,0,272,297,170,250,178,0,183,0,0,272,272,202,268,0,0,0,0,208,0,0,297,0,0,254,0,0,0,0,259,0,0],"split_type":[0,0,0,0,0,0,0,0,0,0,0,0,0,0,0,0,0,0,0,0,0,0,0,0,0,0,0,0,0,0,0,0,0,0,0],"sum_hessian":[2.0455382E2,1.3755612E2,6.69977E1,9.099323E0,1.284568E2,2.473021E1,4.2267498E1,6.1641945E1,6.681485E1,9.727339E0,1.500287E1,6.8052144E0,3.5462284E1,1.8259207E1,4.3382736E1,2.7789347E1,3.9025505E1,8.257616E0,6.7452536E0,1.1698465E1,6.5607424E0,3.276396E1,1.0618776E1,1.127761E1,1.6511738E1,6.0986686E0,3.2926834E1,2.2111315E1,1.0652647E1,6.0543995E0,1.0457337E1,8.119821E0,1.3991494E1,7.1998343E0,6.7916594E0],"tree_param":{"num_deleted":"0","num_feature":"384","num_nodes":"35","size_leaf_vector":"1"}},{"base_weights":[8.2226574E-2,-2.4438283E-1,7.901512E-1,-4.740864E-1,7.653266E-1,1.0403214E0,-6.923756E-3,-2.4837548E-2,-3.177299E-1,2.2207873E-1,2.750423E-2,1.2053671E0,7.987197E-3,1.0040684E0,-5.0907546E-1,1.4909104E-2,-1.3661672E-2,2.5134282E-2,8.48347E-1,3.688968E-3,2.979316E-2,1.9208973E-2,-7.2128016E-1,2.3988526E-2,-1.8762648E-3,-3.9853653E-1,-2.5170714E-2,-2.706101E-2,-3.1525385E-2,5.609264E-3,-2.6577633E-2],"categories":[],"categories_nodes":[],"categories_segments":[],"categories_sizes":[],"default_left":[0,0,0,0,0,0,0,0,0,0,0,0,0,0,0,0,0,0,0,0,0,0,0,0,0,0,0,0,0,0,0],"id":29,"left_children":[1,3,5,7,9,11,-1,-1,13,15,-1,17,-1,19,21,-1,-1,-1,23,-1,-1,-1,25,-1,-1,27,-1,-1,29,-1,-1],"loss_changes":[4.7638012E1,3.269519E1,1.9425865E1,1.7464231E1,1.1870855E1,5.0947227E0,0E0,0E0,2.5025337E1,1.0431209E1,0E0,3.8516045E0,0E0,7.2141304E0,2.9866886E1,0E0,0E0,0E0,9.252001E0,0E0,0E0,0E0,1.8385822E1,0E0,0E0,2.3069683E1,0E0,0E0,2.2130194E1,0E0,0E0],"parents":[2147483647,0,0,1,1,2,2,3,3,4,4,5,5,8,8,9,9,11,11,13,13,14,14,18,18,22,22,25,25,28,28],"right_children":[2,4,6,8,10,12,-1,-1,14,16,-1,18,-1,20,22,-1,-1,-1,24,-1,-1,-1,26,-1,-1,28,-1,-1,30,-1,-1],"split_conditions":[3.7054E0,1.689388E1,3.7365127E0,2.80198E2,1E0,1.1634441E1,-6.923756E-3,-2.4837548E-2,8.11088E1,2.507814E-1,2.750423E-2,5.1065273E0,7.987197E-3,7.96523E1,1.1162855E1,1.4909104E-2,-1.3661672E-2,2.5134282E-2,4.305216E0,3.688968E-3,2.979316E-2,1.9208973E-2,9.720841E0,2.3988526E-2,-1.8762648E-3,1E0,-2.5170714E-2,-2.706101E-2,-3.736082E-1,5.609264E-3,-2.6577633E-2],"split_indices":[297,261,207,174,33,251,0,0,298,181,0,261,0,298,167,0,0,0,257,0,0,0,261,0,0,118,0,0,179,0,0],"split_type":[0,0,0,0,0,0,0,0,0,0,0,0,0,0,0,0,0,0,0,0,0,0,0,0,0,0,0,0,0,0,0],"sum_hessian":[2.0602116E2,1.4097395E2,6.504722E1,1.148511E2,2.6122852E1,5.3779327E1,1.1267895E1,1.5895754E1,9.895534E1,1.5846222E1,1.027663E1,4.177773E1,1.2001596E1,1.2509995E1,8.644534E1,9.694343E0,6.1518793E0,2.4202677E1,1.7575052E1,6.022547E0,6.4874487E0,9.964298E0,7.648105E1,1.1172195E1,6.4028573E0,5.337362E1,2.3107428E1,1.2674249E1,4.069937E1,3.2919754E1,7.7796173E0],"tree_param":{"num_deleted":"0","num_feature":"384","num_nodes":"31","size_leaf_vector":"1"}},{"base_weights":[5.1734522E-2,-5.696919E-1,7.0908034E-1,-7.1058184E-1,2.9190848E-2,-2.5214247E-2,8.7108725E-1,-2.2499183E-1,-1.0346885E0,2.7731854E-1,1.0813515E0,-2.5027659E-2,7.697315E-1,-1.2521981E0,5.144306E-3,9.063222E-1,-1.6973983E-2,7.5865216E-3,1.2135514E0,-3.1492396E-3,1.2886028E0,-2.503381E-2,-9.306104E-3,2.563033E-2,2.922736E-3,2.5847226E-2,9.2046326E-1,1.2242934E-2,3.0616252E-2,-2.0869654E-3,2.5522562E-2],"categories":[],"categories_nodes":[],"categories_segments":[],"categories_sizes":[],"default_left":[0,0,0,0,0,0,0,0,0,0,0,0,0,0,0,0,0,0,0,0,0,0,0,0,0,0,0,0,0,0,0],"id":30,"left_children":[1,3,5,7,-1,-1,9,11,13,15,17,-1,19,21,-1,23,-1,-1,25,-1,27,-1,-1,-1,-1,-1,29,-1,-1,-1,-1],"loss_changes":[8.367824E1,3.367719E1,3.5125507E1,1.5597263E1,0E0,0E0,1.1561424E1,4.8694225E1,1.7261005E1,1.9305283E1,5.7744293E0,0E0,1.0871204E1,7.479645E0,0E0,6.9890833E0,0E0,0E0,4.8455734E0,0E0,4.040476E0,0E0,0E0,0E0,0E0,0E0,1.672747E1,0E0,0E0,0E0,0E0],"parents":[2147483647,0,0,1,1,2,2,3,3,6,6,7,7,8,8,9,9,10,10,12,12,13,13,15,15,18,18,20,20,26,26],"right_children":[2,4,6,8,-1,-1,10,12,14,16,18,-1,20,22,-1,24,-1,-1,26,-1,28,-1,-1,-1,-1,-1,30,-1,-1,-1,-1],"split_conditions":[2E0,1.4507586E1,2.0908031E0,2.3213747E0,2.9190848E-2,-2.5214247E-2,1.0074764E-1,1.0481923E1,6.4938245E0,5.7448286E-1,2.9724E0,-2.5027659E-2,8.114395E-1,4.2155483E1,5.144306E-3,2.9013133E-2,-1.6973983E-2,7.5865216E-3,6.144653E1,-3.1492396E-3,1.3685813E1,-2.503381E-2,-9.306104E-3,2.563033E-2,2.922736E-3,2.5847226E-2,7.812252E1,1.2242934E-2,3.0616252E-2,-2.0869654E-3,2.5522562E-2],"split_indices":[304,167,207,187,0,0,169,239,205,171,297,0,171,258,0,169,0,0,235,0,197,0,0,0,0,0,235,0,0,0,0],"split_type":[0,0,0,0,0,0,0,0,0,0,0,0,0,0,0,0,0,0,0,0,0,0,0,0,0,0,0,0,0,0,0],"sum_hessian":[2.048447E2,1.05295265E2,9.954943E1,9.9145256E1,6.1500087E0,6.8894734E0,9.265996E1,3.969246E1,5.9452793E1,2.4238174E1,6.842178E1,1.7724192E1,2.196827E1,5.1123516E1,8.329278E0,1.6196777E1,8.041397E0,1.1730573E1,5.669121E1,7.7397447E0,1.4228525E1,3.9605328E1,1.1518188E1,9.006798E0,7.1899786E0,2.8370361E1,2.8320848E1,6.5869164E0,7.641608E0,9.971547E0,1.83493E1],"tree_param":{"num_deleted":"0","num_feature":"384","num_nodes":"31","size_leaf_vector":"1"}},{"base_weights":[2.000033E-2,-3.6459997E-1,8.439147E-1,-1.3140249E0,-1.03132285E-1,-6.192324E-3,9.9144703E-1,-2.5523573E-2,-1.0675277E-2,5.9563255E-1,-8.1728625E-1,1.2542737E0,4.6154046E-1,8.855036E-1,-1.6778065E-2,8.83475E-3,-1.1210654E0,2.9740116E-2,1.0552366E0,-9.399615E-3,2.0083964E-2,-3.70122E-2,1.2467332E0,-4.0438056E-1,-2.4811912E-2,3.4910652E-3,2.4092525E-2,-1.4586591E-2,1.5030744E-2,1.4573005E0,8.343813E-3,-2.5636617E-2,1.4744967E-2,2.9250434E-2,1.2198994E-2],"categories":[],"categories_nodes":[],"categories_segments":[],"categories_sizes":[],"default_left":[0,0,0,0,0,0,0,0,0,0,0,0,0,0,0,0,0,0,0,0,0,0,0,0,0,0,0,0,0,0,0,0,0,0,0],"id":31,"left_children":[1,3,5,7,9,-1,11,-1,-1,13,15,17,19,21,-1,-1,23,-1,25,-1,-1,27,29,31,-1,-1,-1,-1,-1,33,-1,-1,-1,-1,-1],"loss_changes":[6.475704E1,3.45766E1,1.15625725E1,3.5913239E0,5.4513035E1,0E0,8.061394E0,0E0,0E0,2.5176188E1,2.1864819E1,3.6736603E0,1.3746819E1,1.5542679E1,0E0,0E0,1.0224308E1,0E0,8.112705E0,0E0,0E0,9.730359E0,5.3563423E0,1.8884722E1,0E0,0E0,0E0,0E0,0E0,4.823944E0,0E0,0E0,0E0,0E0,0E0],"parents":[2147483647,0,0,1,1,2,2,3,3,4,4,6,6,9,9,10,10,11,11,12,12,13,13,16,16,18,18,21,21,22,22,23,23,29,29],"right_children":[2,4,6,8,10,-1,12,-1,-1,14,16,18,20,22,-1,-1,24,-1,26,-1,-1,28,30,32,-1,-1,-1,-1,-1,34,-1,-1,-1,-1,-1],"split_conditions":[1.3212335E1,7.3878994E0,1.2586597E1,1.2758621E0,2.591633E1,-6.192324E-3,1E0,-2.5523573E-2,-1.0675277E-2,4.9239845E1,5.9531555E0,3.624974E1,2.0750923E-1,-1.17630616E-1,-1.6778065E-2,8.83475E-3,1.0434783E0,2.9740116E-2,1.3084137E1,-9.399615E-3,2.0083964E-2,1.1212121E0,-1.1373697E-1,2.4347825E0,-2.4811912E-2,3.4910652E-3,2.4092525E-2,-1.4586591E-2,1.5030744E-2,1.2862651E1,8.343813E-3,-2.5636617E-2,1.4744967E-2,2.9250434E-2,1.2198994E-2],"split_indices":[221,200,255,182,264,0,83,0,0,225,268,225,192,192,0,0,182,0,268,0,0,182,192,184,0,0,0,0,0,227,0,0,0,0,0],"split_type":[0,0,0,0,0,0,0,0,0,0,0,0,0,0,0,0,0,0,0,0,0,0,0,0,0,0,0,0,0,0,0,0,0,0,0],"sum_hessian":[2.0435172E2,1.3931416E2,6.503756E1,3.0077715E1,1.0923644E2,7.0919547E0,5.7945602E1,2.4054794E1,6.0229206E0,5.520947E1,5.4026978E1,3.8727436E1,1.9218166E1,4.662225E1,8.587221E0,1.0029972E1,4.3997005E1,1.1369269E1,2.7358168E1,7.9247227E0,1.1293445E1,1.3114916E1,3.350733E1,1.3718937E1,3.0278067E1,7.9469147E0,1.9411253E1,6.940089E0,6.1748266E0,2.6236897E1,7.270437E0,7.369468E0,6.349468E0,1.9710537E1,6.5263596E0],"tree_param":{"num_deleted":"0","num_feature":"384","num_nodes":"35","size_leaf_vector":"1"}},{"base_weights":[-1.4050344E-3,-4.8163414E-1,5.995019E-1,-2.4945425E-2,-2.975582E-1,9.8095757E-1,9.142974E-2,-5.1520336E-1,5.2856773E-1,-6.227832E-3,1.1704404E0,5.66828E-1,-2.6776029E-2,-7.190446E-1,1.1713739E-2,-1.3581488E-2,1.2268149E0,7.733579E-4,2.4191707E-2,2.896343E-2,-1.8522763E-1,1.544085E-2,-9.8721534E-1,1.2782447E-2,2.9707024E-2,1.3359715E-2,-1.8844811E-2,-1.5663336E-1,-1.3152772E0,1.1420639E-2,-1.4859935E-2,-2.4722906E-2,-1.2835223E-2],"categories":[],"categories_nodes":[],"categories_segments":[],"categories_sizes":[],"default_left":[0,0,0,0,0,0,0,0,0,0,0,0,0,0,0,0,0,0,0,0,0,0,0,0,0,0,0,0,0,0,0,0,0],"id":32,"left_children":[1,3,5,-1,7,9,11,13,15,-1,17,19,-1,21,-1,-1,23,-1,-1,-1,25,-1,27,-1,-1,-1,-1,29,31,-1,-1,-1,-1],"loss_changes":[5.6921608E1,1.960332E1,1.6974552E1,0E0,1.6574905E1,1.2744938E1,2.9497288E1,1.781424E1,1.7712814E1,0E0,1.1790619E1,2.4601315E1,0E0,2.7069183E1,0E0,0E0,3.0414066E0,0E0,0E0,0E0,1.535755E1,0E0,1.4569748E1,0E0,0E0,0E0,0E0,8.834108E0,2.7120209E0,0E0,0E0,0E0,0E0],"parents":[2147483647,0,0,1,1,2,2,4,4,5,5,6,6,7,7,8,8,10,10,11,11,13,13,16,16,20,20,22,22,27,27,28,28],"right_children":[2,4,6,-1,8,10,12,14,16,-1,18,20,-1,22,-1,-1,24,-1,-1,-1,26,-1,28,-1,-1,-1,-1,30,32,-1,-1,-1,-1],"split_conditions":[3E0,1.7352941E0,5.856412E-1,-2.4945425E-2,2.6868353E1,3.965561E-1,2.3332363E1,1E0,-1.18676595E-1,-6.227832E-3,3.52691E2,-2.87405E-1,-2.6776029E-2,-2.3336115E0,1.1713739E-2,-1.3581488E-2,2E0,7.733579E-4,2.4191707E-2,2.896343E-2,1.7083334E0,1.544085E-2,1E0,1.2782447E-2,2.9707024E-2,1.3359715E-2,-1.8844811E-2,4.8150506E0,1.5454509E1,1.1420639E-2,-1.4859935E-2,-2.4722906E-2,-1.2835223E-2],"split_indices":[282,183,171,0,262,171,264,370,192,0,174,170,0,188,0,0,279,0,0,0,183,0,160,0,0,0,0,262,261,0,0,0,0],"split_type":[0,0,0,0,0,0,0,0,0,0,0,0,0,0,0,0,0,0,0,0,0,0,0,0,0,0,0,0,0,0,0,0,0],"sum_hessian":[1.9725392E2,1.0964062E2,8.761331E1,1.7456465E1,9.218415E1,5.0036293E1,3.7577015E1,7.296706E1,1.9217094E1,6.180058E0,4.3856236E1,2.9180334E1,8.396683E0,6.2358257E1,1.0608799E1,6.6463556E0,1.2570739E1,7.687342E0,3.616889E1,1.1721017E1,1.7459316E1,8.859977E0,5.3498283E1,6.430595E0,6.140144E0,8.490217E0,8.9691E0,1.5152161E1,3.8346123E1,7.0141916E0,8.137969E0,3.1409254E1,6.936867E0],"tree_param":{"num_deleted":"0","num_feature":"384","num_nodes":"33","size_leaf_vector":"1"}},{"base_weights":[4.300661E-2,-3.2821828E-1,7.9184294E-1,-1.9623626E-2,-8.5024226E-1,1.8208095E-1,1.131466E0,-4.6228302E-1,6.1672753E-1,1.4670892E-2,-1.0972646E0,-1.5073348E-2,6.73076E-1,2.177365E-2,6.132311E-3,-8.375889E-1,1.6088966E-2,-1.1946388E-2,9.140097E-1,2.4013626E-3,-1.3023509E0,2.2241885E-2,-5.0052255E-3,1.6626574E-2,-1.1728365E0,2.8901327E-2,4.246268E-1,-2.4959004E-2,-1.0854964E-2,-2.5147168E-2,-9.635876E-4,1.765908E-2,-6.4564385E-3],"categories":[],"categories_nodes":[],"categories_segments":[],"categories_sizes":[],"default_left":[0,0,0,0,0,0,0,0,0,0,0,0,0,0,0,0,0,0,0,0,0,0,0,0,0,0,0,0,0,0,0,0,0],"id":33,"left_children":[1,3,5,7,9,11,13,15,17,-1,19,-1,21,-1,-1,23,-1,-1,25,-1,27,-1,-1,-1,29,-1,31,-1,-1,-1,-1,-1,-1],"loss_changes":[5.4883514E1,2.1257698E1,1.3544544E1,2.3367006E1,2.0651592E1,1.2188606E1,4.45306E0,2.570224E1,1.3280924E1,0E0,1.0872673E1,0E0,9.622522E0,0E0,0E0,2.3367424E1,0E0,0E0,1.044351E1,0E0,3.7264442E0,0E0,0E0,0E0,1.0616844E1,0E0,8.214213E0,0E0,0E0,0E0,0E0,0E0,0E0],"parents":[2147483647,0,0,1,1,2,2,3,3,4,4,5,5,6,6,7,7,8,8,10,10,12,12,15,15,18,18,20,20,24,24,26,26],"right_children":[2,4,6,8,10,12,14,16,18,-1,20,-1,22,-1,-1,24,-1,-1,26,-1,28,-1,-1,-1,30,-1,32,-1,-1,-1,-1,-1,-1],"split_conditions":[1.3401775E1,1.2767174E1,1.1250837E1,3.1499E0,9.9420185E0,1.8308839E0,1E0,9.065917E-1,1.3417819E1,1.4670892E-2,1.2232142E1,-1.5073348E-2,2.445393E0,2.177365E-2,6.132311E-3,5.305778E0,1.6088966E-2,-1.1946388E-2,8.130673E0,2.4013626E-3,1.4383612E1,2.2241885E-2,-5.0052255E-3,1.6626574E-2,8.886476E-1,2.8901327E-2,7.76165E0,-2.4959004E-2,-1.0854964E-2,-2.5147168E-2,-9.635876E-4,1.765908E-2,-6.4564385E-3],"split_indices":[221,168,227,297,186,266,139,171,197,0,226,0,266,0,0,268,0,0,201,0,220,0,0,0,171,0,211,0,0,0,0,0,0],"split_type":[0,0,0,0,0,0,0,0,0,0,0,0,0,0,0,0,0,0,0,0,0,0,0,0,0,0,0,0,0,0,0,0,0],"sum_hessian":[1.9742336E2,1.3198624E2,6.543712E1,8.2956474E1,4.9029762E1,2.3414278E1,4.202284E1,4.8928738E1,3.4027737E1,6.201842E0,4.282792E1,7.407411E0,1.6006866E1,3.5693443E1,6.3293934E0,3.858609E1,1.0342648E1,6.279728E0,2.7748009E1,6.086457E0,3.6741463E1,9.730303E0,6.2765636E0,6.0379868E0,3.2548103E1,1.0779469E1,1.696854E1,2.994609E1,6.7953725E0,2.5791899E1,6.7562037E0,9.6747875E0,7.293752E0],"tree_param":{"num_deleted":"0","num_feature":"384","num_nodes":"33","size_leaf_vector":"1"}},{"base_weights":[8.762566E-3,-3.7653282E-1,5.524492E-1,-1.6838269E-1,-2.4909668E-2,-1.6756445E-2,7.1238625E-1,-7.975098E-1,2.3749074E-1,8.786019E-1,-1.5394872E-2,9.38373E-2,-2.454983E-2,-2.4713384E-2,4.8336777E-1,1.0894521E0,3.3998656E-1,-2.4572825E-2,2.1065881E-2,3.2475147E-1,2.9340046E-2,8.002699E-1,2.755419E-2,8.9568603E-1,-1.2842992E-2,2.6626756E-2,1.3426897E-1,1.2090629E0,4.6539598E-4,4.9772556E-3,2.707284E-2,8.4939647E-1,-3.3365354E-1,2.8939402E-2,1.5124324E-2,2.037438E-3,2.874671E-2,1.1598306E-2,-1.1487012E-2],"categories":[],"categories_nodes":[],"categories_segments":[],"categories_sizes":[],"default_left":[0,0,0,0,0,0,0,0,0,0,0,0,0,0,0,0,0,0,0,0,0,0,0,0,0,0,0,0,0,0,0,0,0,0,0,0,0,0,0],"id":34,"left_children":[1,3,5,7,-1,-1,9,11,13,15,-1,17,-1,-1,19,21,23,-1,-1,25,-1,27,-1,29,-1,-1,31,33,-1,-1,-1,35,37,-1,-1,-1,-1,-1,-1],"loss_changes":[4.2456676E1,2.652625E1,2.055241E1,2.5376337E1,0E0,0E0,2.0357937E1,2.1990456E1,2.4904346E1,7.8268623E0,0E0,2.7974558E1,0E0,0E0,1.0234044E1,7.3832626E0,1.1741656E1,0E0,0E0,1.0890377E1,0E0,1.0035408E1,0E0,5.2979374E0,0E0,0E0,1.3515179E1,3.2365456E0,0E0,0E0,0E0,9.626937E0,8.267851E0,0E0,0E0,0E0,0E0,0E0,0E0],"parents":[2147483647,0,0,1,1,2,2,3,3,6,6,7,7,8,8,9,9,11,11,14,14,15,15,16,16,19,19,21,21,23,23,26,26,27,27,31,31,32,32],"right_children":[2,4,6,8,-1,-1,10,12,14,16,-1,18,-1,-1,20,22,24,-1,-1,26,-1,28,-1,30,-1,-1,32,34,-1,-1,-1,36,38,-1,-1,-1,-1,-1,-1],"split_conditions":[1.392722E1,5.970998E0,3.04246E2,2.6892E0,-2.4909668E-2,-1.6756445E-2,6.7056904E0,5.3167887E0,1.0685872E1,1E0,-1.5394872E-2,1.5170889E-1,-2.454983E-2,-2.4713384E-2,5.924628E0,3.524232E0,5.559267E0,-2.4572825E-2,2.1065881E-2,2.5504088E0,2.9340046E-2,2.695097E1,2.755419E-2,2.9360481E1,-1.2842992E-2,2.6626756E-2,1E0,3.2825E2,4.6539598E-4,4.9772556E-3,2.707284E-2,1.8360636E1,2.368926E1,2.8939402E-2,1.5124324E-2,2.037438E-3,2.874671E-2,1.1598306E-2,-1.1487012E-2],"split_indices":[231,263,174,297,0,0,212,260,199,116,0,269,0,0,263,207,218,0,0,193,0,242,0,264,0,0,90,174,0,0,0,227,242,0,0,0,0,0,0],"split_type":[0,0,0,0,0,0,0,0,0,0,0,0,0,0,0,0,0,0,0,0,0,0,0,0,0,0,0,0,0,0,0,0,0,0,0,0,0,0,0],"sum_hessian":[2.02672E2,1.1860823E2,8.406376E1,9.936871E1,1.9239517E1,7.958726E0,7.6105034E1,3.897219E1,6.0396523E1,6.8983536E1,7.121495E0,1.6177868E1,2.2794323E1,7.7186265E0,5.26779E1,4.956916E1,1.941438E1,6.8945055E0,9.283362E0,4.66475E1,6.0304E0,3.1771648E1,1.779751E1,1.2854983E1,6.5593963E0,6.2665234E0,4.0380974E1,2.077858E1,1.099307E1,6.8108716E0,6.044112E0,1.5975896E1,2.4405079E1,8.457344E0,1.2321235E1,8.477889E0,7.4980063E0,6.0858026E0,1.8319277E1],"tree_param":{"num_deleted":"0","num_feature":"384","num_nodes":"39","size_leaf_vector":"1"}},{"base_weights":[8.8899106E-2,4.2649227E-1,-5.2160877E-1,-2.3936061E-2,6.2256944E-1,-7.2510374E-1,1.9065173E-2,4.2081377E-1,1.1195943E0,9.460252E-3,-9.807079E-1,7.470671E-1,-2.3943081E-1,7.557405E-3,2.2229197E-2,-1.1962966E0,-3.786645E-3,9.3450177E-1,-6.679424E-3,5.5531025E-1,-9.256007E-1,-2.438626E-2,-4.4045495E-3,-3.4217414E-4,1.0854396E0,1.861465E-2,4.2409368E-4,-1.5552937E-3,-2.7468977E-2,2.3699172E-2,5.153203E-1,2.0500269E-2,-3.5644511E-3],"categories":[],"categories_nodes":[],"categories_segments":[],"categories_sizes":[],"default_left":[0,0,0,0,0,0,0,0,0,0,0,0,0,0,0,0,0,0,0,0,0,0,0,0,0,0,0,0,0,0,0,0,0],"id":35,"left_children":[1,3,5,-1,7,9,-1,11,13,-1,15,17,19,-1,-1,21,-1,23,-1,25,27,-1,-1,-1,29,-1,-1,-1,-1,-1,31,-1,-1],"loss_changes":[4.014232E1,4.478138E1,2.3034245E1,0E0,1.1346859E1,2.011837E1,0E0,1.735328E1,3.8887024E0,0E0,8.411747E0,1.1485012E1,1.452602E1,0E0,0E0,8.434727E0,0E0,6.6732216E0,0E0,3.4587142E0,8.047025E0,0E0,0E0,0E0,6.7202606E0,0E0,0E0,0E0,0E0,0E0,6.7049565E0,0E0,0E0],"parents":[2147483647,0,0,1,1,2,2,4,4,5,5,7,7,8,8,10,10,11,11,12,12,15,15,17,17,19,19,20,20,24,24,30,30],"right_children":[2,4,6,-1,8,10,-1,12,14,-1,16,18,20,-1,-1,22,-1,24,-1,26,28,-1,-1,-1,30,-1,-1,-1,-1,-1,32,-1,-1],"split_conditions":[2.3216276E0,2.2E1,1.1855519E1,-2.3936061E-2,1.934194E1,8.11088E1,1.9065173E-2,1.1418272E1,2.4631655E0,9.460252E-3,1.5003866E1,6.8500857E0,-3.42E0,7.557405E-3,2.2229197E-2,3.8618156E1,-3.786645E-3,5.884223E0,-6.679424E-3,9.154014E0,1.2393687E1,-2.438626E-2,-4.4045495E-3,-3.4217414E-4,2.9295855E1,1.861465E-2,4.2409368E-4,-1.5552937E-3,-2.7468977E-2,2.3699172E-2,-2.3109853E0,2.0500269E-2,-3.5644511E-3],"split_indices":[187,273,217,0,227,298,0,215,206,0,243,202,208,0,0,245,0,191,0,228,258,0,0,0,258,0,0,0,0,0,190,0,0],"split_type":[0,0,0,0,0,0,0,0,0,0,0,0,0,0,0,0,0,0,0,0,0,0,0,0,0,0,0,0,0,0,0,0,0],"sum_hessian":[1.9477016E2,1.25423225E2,6.934693E1,1.2189087E1,1.1323414E2,6.166324E1,7.6836905E0,8.054809E1,3.268605E1,1.0285442E1,5.1377796E1,5.3914543E1,2.6633541E1,6.718617E0,2.5967434E1,4.0019833E1,1.13579645E1,4.6284016E1,7.63053E0,1.2336994E1,1.4296547E1,3.2297222E1,7.7226114E0,6.315379E0,3.9968636E1,6.171507E0,6.165488E0,6.393483E0,7.9030643E0,2.6322893E1,1.3645742E1,7.0401697E0,6.605572E0],"tree_param":{"num_deleted":"0","num_feature":"384","num_nodes":"33","size_leaf_vector":"1"}},{"base_weights":[4.9923953E-2,-3.445392E-1,8.1574774E-1,-1.9951488E-1,-2.4748873E-2,-1.5759237E-2,9.9965465E-1,2.3885433E-2,-3.1711808E-1,1.1604048E0,-4.5367233E-3,2.353384E-1,-8.163253E-1,2.3870043E-2,9.168038E-1,-4.7242126E-1,6.638066E-1,1.5862267E-2,-1.0309685E0,2.8450717E-3,2.0190934E-2,1.4060985E-2,-2.5015434E-2,1.0163432E0,-6.567355E-3,-5.0957897E-4,-1.1979434E0,2.6101269E-2,1.0590615E-3,-2.4168918E-2,-6.659208E-1,2.9556474E-3,-2.5630888E-2],"categories":[],"categories_nodes":[],"categories_segments":[],"categories_sizes":[],"default_left":[0,0,0,0,0,0,0,0,0,0,0,0,0,0,0,0,0,0,0,0,0,0,0,0,0,0,0,0,0,0,0,0,0],"id":36,"left_children":[1,3,5,7,-1,-1,9,-1,11,13,-1,15,17,-1,19,21,23,-1,25,-1,-1,-1,-1,27,-1,-1,29,-1,-1,-1,31,-1,-1],"loss_changes":[6.1275578E1,2.1297081E1,2.1990952E1,2.2121735E1,0E0,0E0,1.26734085E1,0E0,3.0371155E1,3.0920029E0,0E0,1.5850229E1,2.1612476E1,0E0,5.236868E0,2.507416E1,1.2014993E1,0E0,8.604046E0,0E0,0E0,0E0,0E0,1.1721052E1,0E0,0E0,4.925297E0,0E0,0E0,0E0,8.680298E0,0E0,0E0],"parents":[2147483647,0,0,1,1,2,2,3,3,6,6,8,8,9,9,11,11,12,12,14,14,15,15,16,16,18,18,23,23,26,26,30,30],"right_children":[2,4,6,8,-1,-1,10,-1,12,14,-1,16,18,-1,20,22,24,-1,26,-1,-1,-1,-1,28,-1,-1,30,-1,-1,-1,32,-1,-1],"split_conditions":[1.3139892E1,1.6466377E1,1.1866245E1,4.605433E0,-2.4748873E-2,-1.5759237E-2,5.659292E1,2.3885433E-2,2.3076923E-1,2E0,-4.5367233E-3,1.3066021E1,9.722222E-1,2.3870043E-2,2.4268322E1,-1.6228548E0,3.621305E1,1.5862267E-2,2.2767119E-1,2.8450717E-3,2.0190934E-2,1.4060985E-2,-2.5015434E-2,3.0331835E1,-6.567355E-3,-5.0957897E-4,1.5950366E1,2.6101269E-2,1.0590615E-3,-2.4168918E-2,4.888539E1,2.9556474E-3,-2.5630888E-2],"split_indices":[221,257,255,268,0,0,225,0,272,281,0,197,182,0,259,267,258,0,181,0,0,0,0,224,0,0,238,0,0,0,225,0,0],"split_type":[0,0,0,0,0,0,0,0,0,0,0,0,0,0,0,0,0,0,0,0,0,0,0,0,0,0,0,0,0,0,0,0,0],"sum_hessian":[2.0283107E2,1.3387012E2,6.896096E1,1.18248245E2,1.5621866E1,6.6101317E0,6.2350826E1,8.135188E0,1.1011306E2,5.5319496E1,7.0313277E0,5.2263958E1,5.7849102E1,2.8422533E1,2.6896963E1,1.9704042E1,3.2559914E1,6.3481846E0,5.150092E1,6.9137735E0,1.998319E1,8.523009E0,1.1181033E1,2.435864E1,8.201273E0,7.3653035E0,4.4135612E1,1.59341135E1,8.424527E0,3.1628561E1,1.2507053E1,6.2102594E0,6.2967935E0],"tree_param":{"num_deleted":"0","num_feature":"384","num_nodes":"33","size_leaf_vector":"1"}},{"base_weights":[6.406709E-2,-4.569855E-1,6.2013954E-1,-5.9224564E-1,2.9536707E-2,-2.4646392E-2,8.101934E-1,1.7953062E-1,-9.3071073E-1,9.296567E-1,-3.5713585E-3,-4.9893987E-1,2.820565E-2,-1.3053882E0,-3.282474E-1,7.396746E-1,1.2503467E0,-2.4671772E-2,5.770465E-2,-2.4236016E-2,-1.1541214E-2,-2.4849307E-2,2.7445242E-1,9.8480874E-1,-5.2559515E-3,2.7691318E-2,9.6349734E-1,1.4954522E-2,-1.25252465E-2,1.628805E-2,-1.1577778E-2,5.4597147E-3,1.1930282E0,2.2496441E-2,6.8336246E-3,9.017965E-1,2.722839E-2,2.6937973E-2,5.6787315E-3],"categories":[],"categories_nodes":[],"categories_segments":[],"categories_sizes":[],"default_left":[0,0,0,0,0,0,0,0,0,0,0,0,0,0,0,0,0,0,0,0,0,0,0,0,0,0,0,0,0,0,0,0,0,0,0,0,0,0,0],"id":37,"left_children":[1,3,5,7,-1,-1,9,11,13,15,-1,17,-1,19,21,23,25,-1,27,-1,-1,-1,29,31,-1,-1,33,-1,-1,-1,-1,-1,35,-1,-1,37,-1,-1,-1],"loss_changes":[5.8503574E1,3.0699617E1,3.816709E1,2.564024E1,0E0,0E0,1.0880878E1,2.9715807E1,1.5392315E1,4.8656235E0,0E0,1.068441E1,0E0,2.829216E0,1.7662018E1,1.2891716E1,3.0860367E0,0E0,8.217936E0,0E0,0E0,0E0,1.0888226E1,5.64608E0,0E0,0E0,3.256483E0,0E0,0E0,0E0,0E0,0E0,3.5419273E0,0E0,0E0,6.7899694E0,0E0,0E0,0E0],"parents":[2147483647,0,0,1,1,2,2,3,3,6,6,7,7,8,8,9,9,11,11,13,13,14,14,15,15,16,16,18,18,22,22,23,23,26,26,32,32,35,35],"right_children":[2,4,6,8,-1,-1,10,12,14,16,-1,18,-1,20,22,24,26,-1,28,-1,-1,-1,30,32,-1,-1,34,-1,-1,-1,-1,-1,36,-1,-1,38,-1,-1,-1],"split_conditions":[2E0,4.859886E0,2.0908031E0,2.6340563E0,2.9536707E-2,-2.4646392E-2,5.0196266E0,2.9785762E0,-2.3349633E0,3.258626E0,-3.5713585E-3,1.9474348E0,2.820565E-2,6.2424955E0,2.1969822E1,3.0344288E1,5.1041603E0,-2.4671772E-2,2.3287883E0,-2.4236016E-2,-1.1541214E-2,-2.4849307E-2,3.0215425E0,1.1652199E1,-5.2559515E-3,2.7691318E-2,1.4085416E0,1.4954522E-2,-1.25252465E-2,1.628805E-2,-1.1577778E-2,5.4597147E-3,1.8440998E0,2.2496441E-2,6.8336246E-3,1.1376349E1,2.722839E-2,2.6937973E-2,5.6787315E-3],"split_indices":[304,207,207,193,0,0,269,207,190,207,0,270,0,263,245,226,204,0,270,0,0,0,193,199,0,0,270,0,0,0,0,0,270,0,0,268,0,0,0],"split_type":[0,0,0,0,0,0,0,0,0,0,0,0,0,0,0,0,0,0,0,0,0,0,0,0,0,0,0,0,0,0,0,0,0,0,0,0,0,0,0],"sum_hessian":[2.0191228E2,1.0423368E2,9.76786E1,9.8140976E1,6.092707E0,8.262465E0,8.941613E1,2.9914356E1,6.822662E1,8.00319E1,9.384236E0,2.0438023E1,9.476334E0,4.206027E1,2.6166353E1,5.0268456E1,2.9763441E1,7.6124105E0,1.2825612E1,3.598677E1,6.073496E0,9.159822E0,1.700653E1,4.0727795E1,9.540663E0,1.3128938E1,1.6634502E1,6.31137E0,6.514242E0,9.943961E0,7.0625696E0,9.698551E0,3.1029242E1,1.0299597E1,6.3349066E0,1.783732E1,1.3191922E1,8.217698E0,9.619621E0],"tree_param":{"num_deleted":"0","num_feature":"384","num_nodes":"39","size_leaf_vector":"1"}},{"base_weights":[6.548206E-2,-3.3493456E-1,8.3040476E-1,-2.0036696E-2,-8.470062E-1,-3.1847062E-3,1.0190431E0,-7.558354E-1,3.532755E-1,-2.0112012E-2,-1.2551016E0,1.2073685E0,4.2422852E-1,-2.4446376E-2,3.1940995E-3,7.101741E-1,-7.793418E-1,-1.4719146E-2,1.1921195E-2,-9.631183E-3,-2.4029575E-2,1.3938351E-2,2.336943E-2,2.0805206E-2,-7.399294E-3,1.0653023E0,-8.613004E-3,2.0118996E-3,-2.595212E-2,2.1634122E-2,6.147695E-3],"categories":[],"categories_nodes":[],"categories_segments":[],"categories_sizes":[],"default_left":[0,0,0,0,0,0,0,0,0,0,0,0,0,0,0,0,0,0,0,0,0,0,0,0,0,0,0,0,0,0,0],"id":38,"left_children":[1,3,5,7,9,-1,11,13,15,17,19,21,23,-1,-1,25,27,-1,-1,-1,-1,-1,-1,-1,-1,29,-1,-1,-1,-1,-1],"loss_changes":[6.367067E1,2.19966E1,1.3693695E1,2.3210682E1,1.7523464E1,0E0,6.7404594E0,1.7916607E1,2.2656258E1,1.0277743E1,3.4878197E0,2.7775803E0,9.773085E0,0E0,0E0,1.8348307E1,8.827203E0,0E0,0E0,0E0,0E0,0E0,0E0,0E0,0E0,4.5413513E0,0E0,0E0,0E0,0E0,0E0],"parents":[2147483647,0,0,1,1,2,2,3,3,4,4,6,6,7,7,8,8,9,9,10,10,11,11,12,12,15,15,16,16,25,25],"right_children":[2,4,6,8,10,-1,12,14,16,18,20,22,24,-1,-1,26,28,-1,-1,-1,-1,-1,-1,-1,-1,30,-1,-1,-1,-1,-1],"split_conditions":[1.3139892E1,2.9166666E-1,2.2799604E1,7.514538E0,1.2132734E1,-3.1847062E-3,8.38543E0,2.5576027E1,1.4383612E1,3.6803013E1,-2.3424017E0,1.1250837E1,3.106206E-1,-2.4446376E-2,3.1940995E-3,2.591633E1,1.3956203E1,-1.4719146E-2,1.1921195E-2,-9.631183E-3,-2.4029575E-2,1.3938351E-2,2.336943E-2,2.0805206E-2,-7.399294E-3,1.486526E1,-8.613004E-3,2.0118996E-3,-2.595212E-2,2.1634122E-2,6.147695E-3],"split_indices":[221,272,229,201,259,0,265,264,228,226,188,227,178,0,0,264,198,0,0,0,0,0,0,0,0,198,0,0,0,0,0],"split_type":[0,0,0,0,0,0,0,0,0,0,0,0,0,0,0,0,0,0,0,0,0,0,0,0,0,0,0,0,0,0,0],"sum_hessian":[2.0787006E2,1.3644044E2,7.142961E1,8.4492226E1,5.1948215E1,1.118153E1,6.024808E1,2.8443588E1,